elements: [Ta] 
E0: [0.000000] 
deltaSplineBins: 0.001000 
embeddings:
  0: {ndensity: 1, FS_parameters: [1.0, 1.0], npoti: FinnisSinclair, rho_core_cutoff: 100000, drho_core_cutoff: 250}
bonds:
  [0, 0]: {nradmax: 3, lmax: 3, nradbasemax: 16, radbasename: ChebExpCos, radparameters: [3.059235105], radcoefficients: [[[1, 0, 0, 0, 0, 0, 0, 0, 0, 0, 0, 0, 0, 0, 0, 0], [1, 0, 0, 0, 0, 0, 0, 0, 0, 0, 0, 0, 0, 0, 0, 0], [1, 0, 0, 0, 0, 0, 0, 0, 0, 0, 0, 0, 0, 0, 0, 0], [1, 0, 0, 0, 0, 0, 0, 0, 0, 0, 0, 0, 0, 0, 0, 0]], [[0, 1, 0, 0, 0, 0, 0, 0, 0, 0, 0, 0, 0, 0, 0, 0], [0, 1, 0, 0, 0, 0, 0, 0, 0, 0, 0, 0, 0, 0, 0, 0], [0, 1, 0, 0, 0, 0, 0, 0, 0, 0, 0, 0, 0, 0, 0, 0], [0, 1, 0, 0, 0, 0, 0, 0, 0, 0, 0, 0, 0, 0, 0, 0]], [[0, 0, 1, 0, 0, 0, 0, 0, 0, 0, 0, 0, 0, 0, 0, 0], [0, 0, 1, 0, 0, 0, 0, 0, 0, 0, 0, 0, 0, 0, 0, 0], [0, 0, 1, 0, 0, 0, 0, 0, 0, 0, 0, 0, 0, 0, 0, 0], [0, 0, 1, 0, 0, 0, 0, 0, 0, 0, 0, 0, 0, 0, 0, 0]]], prehc: 0, lambdahc: 3.059235105, rcut: 5.604694451, dcut: 0.01, rcut_in: 0.3, dcut_in: 0.01, inner_cutoff_type: distance}
functions:
  0:
    - {mu0: 0, rank: 1, ndensity: 1, num_ms_combs: 1, mus: [0], ns: [1], ls: [0], ms_combs: [0], ctildes: [1.0]}
    - {mu0: 0, rank: 1, ndensity: 1, num_ms_combs: 1, mus: [0], ns: [2], ls: [0], ms_combs: [0], ctildes: [1.0]}
    - {mu0: 0, rank: 2, ndensity: 1, num_ms_combs: 5, mus: [0, 0], ns: [2, 3], ls: [2, 2], ms_combs: [-2, 2, -1, 1, 0, 0, 1, -1, 2, -2], ctildes: [0.4472135954999579, -0.4472135954999579, 0.447213595499958, -0.4472135954999579, 0.4472135954999579]}
    - {mu0: 0, rank: 2, ndensity: 1, num_ms_combs: 5, mus: [0, 0], ns: [3, 3], ls: [2, 2], ms_combs: [-2, 2, -1, 1, 0, 0, 1, -1, 2, -2], ctildes: [0.4472135954999579, -0.4472135954999579, 0.447213595499958, -0.4472135954999579, 0.4472135954999579]}
    - {mu0: 0, rank: 3, ndensity: 1, num_ms_combs: 19, mus: [0, 0, 0], ns: [1, 2, 2], ls: [2, 2, 2], ms_combs: [-2, 0, 2, -2, 1, 1, -2, 2, 0, -1, -1, 2, -1, 0, 1, -1, 1, 0, -1, 2, -1, 0, -2, 2, 0, -1, 1, 0, 0, 0, 0, 1, -1, 0, 2, -2, 1, -2, 1, 1, -1, 0, 1, 0, -1, 1, 1, -2, 2, -2, 0, 2, -1, -1, 2, 0, -2], ctildes: [0.10690449676496976, -0.1309307341415954, 0.10690449676496976, -0.1309307341415954, 0.05345224838248488, 0.05345224838248488, -0.1309307341415954, 0.10690449676496976, 0.05345224838248488, -0.10690449676496976, 0.05345224838248488, 0.10690449676496976, -0.1309307341415954, 0.05345224838248488, 0.05345224838248488, -0.1309307341415954, 0.10690449676496976, -0.1309307341415954, 0.10690449676496976]}
    - {mu0: 0, rank: 3, ndensity: 1, num_ms_combs: 19, mus: [0, 0, 0], ns: [1, 1, 2], ls: [2, 2, 2], ms_combs: [-2, 0, 2, -2, 1, 1, -2, 2, 0, -1, -1, 2, -1, 0, 1, -1, 1, 0, -1, 2, -1, 0, -2, 2, 0, -1, 1, 0, 0, 0, 0, 1, -1, 0, 2, -2, 1, -2, 1, 1, -1, 0, 1, 0, -1, 1, 1, -2, 2, -2, 0, 2, -1, -1, 2, 0, -2], ctildes: [0.10690449676496976, -0.1309307341415954, 0.10690449676496976, -0.1309307341415954, 0.05345224838248488, 0.05345224838248488, -0.1309307341415954, 0.10690449676496976, 0.05345224838248488, -0.10690449676496976, 0.05345224838248488, 0.10690449676496976, -0.1309307341415954, 0.05345224838248488, 0.05345224838248488, -0.1309307341415954, 0.10690449676496976, -0.1309307341415954, 0.10690449676496976]}
    - {mu0: 0, rank: 3, ndensity: 1, num_ms_combs: 9, mus: [0, 0, 0], ns: [2, 2, 2], ls: [1, 1, 2], ms_combs: [-1, -1, 2, -1, 0, 1, -1, 1, 0, 0, -1, 1, 0, 0, 0, 0, 1, -1, 1, -1, 0, 1, 0, -1, 1, 1, -2], ctildes: [0.19999999999999998, -0.1414213562373095, 0.08164965809277261, -0.1414213562373095, 0.16329931618554522, -0.1414213562373095, 0.08164965809277261, -0.1414213562373095, 0.19999999999999998]}
    - {mu0: 0, rank: 4, ndensity: 1, num_ms_combs: 37, mus: [0, 0, 0, 0], ns: [1, 1, 1, 2], ls: [1, 1, 2, 2], ms_combs: [-1, -1, 0, 2, -1, -1, 1, 1, -1, -1, 2, 0, -1, 0, -1, 2, -1, 0, 0, 1, -1, 0, 1, 0, -1, 0, 2, -1, -1, 1, -2, 2, -1, 1, -1, 1, -1, 1, 0, 0, -1, 1, 1, -1, -1, 1, 2, -2, 0, -1, -1, 2, 0, -1, 0, 1, 0, -1, 1, 0, 0, -1, 2, -1, 0, 0, -2, 2, 0, 0, -1, 1, 0, 0, 0, 0, 0, 0, 1, -1, 0, 0, 2, -2, 0, 1, -2, 1, 0, 1, -1, 0, 0, 1, 0, -1, 0, 1, 1, -2, 1, -1, -2, 2, 1, -1, -1, 1, 1, -1, 0, 0, 1, -1, 1, -1, 1, -1, 2, -2, 1, 0, -2, 1, 1, 0, -1, 0, 1, 0, 0, -1, 1, 0, 1, -2, 1, 1, -2, 0, 1, 1, -1, -1, 1, 1, 0, -2], ctildes: [0.047809144373375745, -0.058554004376911974, 0.047809144373375745, -0.04140393356054124, 0.01690308509457033, 0.01690308509457033, -0.04140393356054124, 0.019518001458970664, 0.009759000729485332, -0.019518001458970664, 0.009759000729485332, 0.019518001458970664, -0.04140393356054124, 0.01690308509457033, 0.01690308509457033, -0.04140393356054124, 0.03903600291794133, 0.019518001458970664, -0.03903600291794133, 0.019518001458970664, 0.03903600291794133, -0.04140393356054124, 0.01690308509457033, 0.01690308509457033, -0.04140393356054124, 0.019518001458970664, 0.009759000729485332, -0.019518001458970664, 0.009759000729485332, 0.019518001458970664, -0.04140393356054124, 0.01690308509457033, 0.01690308509457033, -0.04140393356054124, 0.047809144373375745, -0.058554004376911974, 0.047809144373375745]}
    - {mu0: 0, rank: 4, ndensity: 1, num_ms_combs: 37, mus: [0, 0, 0, 0], ns: [1, 2, 1, 1], ls: [1, 1, 2, 2], ms_combs: [-1, -1, 0, 2, -1, -1, 1, 1, -1, -1, 2, 0, -1, 0, -1, 2, -1, 0, 0, 1, -1, 0, 1, 0, -1, 0, 2, -1, -1, 1, -2, 2, -1, 1, -1, 1, -1, 1, 0, 0, -1, 1, 1, -1, -1, 1, 2, -2, 0, -1, -1, 2, 0, -1, 0, 1, 0, -1, 1, 0, 0, -1, 2, -1, 0, 0, -2, 2, 0, 0, -1, 1, 0, 0, 0, 0, 0, 0, 1, -1, 0, 0, 2, -2, 0, 1, -2, 1, 0, 1, -1, 0, 0, 1, 0, -1, 0, 1, 1, -2, 1, -1, -2, 2, 1, -1, -1, 1, 1, -1, 0, 0, 1, -1, 1, -1, 1, -1, 2, -2, 1, 0, -2, 1, 1, 0, -1, 0, 1, 0, 0, -1, 1, 0, 1, -2, 1, 1, -2, 0, 1, 1, -1, -1, 1, 1, 0, -2], ctildes: [0.047809144373375745, -0.058554004376911974, 0.047809144373375745, -0.04140393356054124, 0.01690308509457033, 0.01690308509457033, -0.04140393356054124, 0.019518001458970664, 0.009759000729485332, -0.019518001458970664, 0.009759000729485332, 0.019518001458970664, -0.04140393356054124, 0.01690308509457033, 0.01690308509457033, -0.04140393356054124, 0.03903600291794133, 0.019518001458970664, -0.03903600291794133, 0.019518001458970664, 0.03903600291794133, -0.04140393356054124, 0.01690308509457033, 0.01690308509457033, -0.04140393356054124, 0.019518001458970664, 0.009759000729485332, -0.019518001458970664, 0.009759000729485332, 0.019518001458970664, -0.04140393356054124, 0.01690308509457033, 0.01690308509457033, -0.04140393356054124, 0.047809144373375745, -0.058554004376911974, 0.047809144373375745]}
    - {mu0: 0, rank: 4, ndensity: 1, num_ms_combs: 37, mus: [0, 0, 0, 0], ns: [1, 1, 1, 2], ls: [1, 2, 1, 2], ms_combs: [-1, -2, 1, 2, -1, -1, 0, 2, -1, -1, 1, 1, -1, 0, -1, 2, -1, 0, 0, 1, -1, 0, 1, 0, -1, 1, -1, 1, -1, 1, 0, 0, -1, 1, 1, -1, -1, 2, -1, 0, -1, 2, 0, -1, -1, 2, 1, -2, 0, -2, 0, 2, 0, -2, 1, 1, 0, -1, -1, 2, 0, -1, 0, 1, 0, -1, 1, 0, 0, 0, -1, 1, 0, 0, 0, 0, 0, 0, 1, -1, 0, 1, -1, 0, 0, 1, 0, -1, 0, 1, 1, -2, 0, 2, -1, -1, 0, 2, 0, -2, 1, -2, -1, 2, 1, -2, 0, 1, 1, -2, 1, 0, 1, -1, -1, 1, 1, -1, 0, 0, 1, -1, 1, -1, 1, 0, -1, 0, 1, 0, 0, -1, 1, 0, 1, -2, 1, 1, -1, -1, 1, 1, 0, -2, 1, 2, -1, -2], ctildes: [0.053994924715603874, -0.02545345161070708, -0.03599661647706925, 0.008817334283548108, 0.024939187455541977, 0.021597969886241554, -0.010798984943120775, -0.018704390591656486, -0.010798984943120775, 0.008817334283548108, 0.010181380644282829, 0.0035996616477069246, -0.017998308238534627, -0.02545345161070708, 0.010181380644282829, 0.028797293181655394, 0.024939187455541977, -0.018704390591656486, -0.03239695482936232, -0.018704390591656486, 0.024939187455541977, 0.028797293181655394, 0.010181380644282829, -0.02545345161070708, -0.017998308238534627, 0.0035996616477069246, 0.010181380644282829, 0.008817334283548108, -0.010798984943120775, -0.018704390591656486, -0.010798984943120775, 0.021597969886241554, 0.024939187455541977, 0.008817334283548108, -0.03599661647706925, -0.02545345161070708, 0.053994924715603874]}
    - {mu0: 0, rank: 4, ndensity: 1, num_ms_combs: 37, mus: [0, 0, 0, 0], ns: [1, 1, 2, 1], ls: [1, 2, 1, 2], ms_combs: [-1, -2, 1, 2, -1, -1, 0, 2, -1, -1, 1, 1, -1, 0, -1, 2, -1, 0, 0, 1, -1, 0, 1, 0, -1, 1, -1, 1, -1, 1, 0, 0, -1, 1, 1, -1, -1, 2, -1, 0, -1, 2, 0, -1, -1, 2, 1, -2, 0, -2, 0, 2, 0, -2, 1, 1, 0, -1, -1, 2, 0, -1, 0, 1, 0, -1, 1, 0, 0, 0, -1, 1, 0, 0, 0, 0, 0, 0, 1, -1, 0, 1, -1, 0, 0, 1, 0, -1, 0, 1, 1, -2, 0, 2, -1, -1, 0, 2, 0, -2, 1, -2, -1, 2, 1, -2, 0, 1, 1, -2, 1, 0, 1, -1, -1, 1, 1, -1, 0, 0, 1, -1, 1, -1, 1, 0, -1, 0, 1, 0, 0, -1, 1, 0, 1, -2, 1, 1, -1, -1, 1, 1, 0, -2, 1, 2, -1, -2], ctildes: [0.053994924715603874, -0.02545345161070708, -0.03599661647706925, 0.008817334283548108, 0.024939187455541977, 0.021597969886241554, -0.010798984943120775, -0.018704390591656486, -0.010798984943120775, 0.008817334283548108, 0.010181380644282829, 0.0035996616477069246, -0.017998308238534627, -0.02545345161070708, 0.010181380644282829, 0.028797293181655394, 0.024939187455541977, -0.018704390591656486, -0.03239695482936232, -0.018704390591656486, 0.024939187455541977, 0.028797293181655394, 0.010181380644282829, -0.02545345161070708, -0.017998308238534627, 0.0035996616477069246, 0.010181380644282829, 0.008817334283548108, -0.010798984943120775, -0.018704390591656486, -0.010798984943120775, 0.021597969886241554, 0.024939187455541977, 0.008817334283548108, -0.03599661647706925, -0.02545345161070708, 0.053994924715603874]}
