elements: [Cr, Fe, Si, V] 
E0: [0.000000, 0.000000, 0.000000, 0.000000] 
deltaSplineBins: 0.001000 
embeddings:
  0: {ndensity: 1, FS_parameters: [1.0, 1.0], npoti: FinnisSinclair, rho_core_cutoff: 100000, drho_core_cutoff: 250}
  1: {ndensity: 1, FS_parameters: [1.0, 1.0], npoti: FinnisSinclair, rho_core_cutoff: 100000, drho_core_cutoff: 250}
  2: {ndensity: 1, FS_parameters: [1.0, 1.0], npoti: FinnisSinclair, rho_core_cutoff: 100000, drho_core_cutoff: 250}
  3: {ndensity: 1, FS_parameters: [1.0, 1.0], npoti: FinnisSinclair, rho_core_cutoff: 100000, drho_core_cutoff: 250}
bonds:
  [0, 0]: {nradmax: 3, lmax: 2, nradbasemax: 3, radbasename: ChebExpCos, radparameters: [0.238], radcoefficients: [[[1, 0, 0], [1, 0, 0], [1, 0, 0]], [[0, 1, 0], [0, 1, 0], [0, 1, 0]], [[0, 0, 1], [0, 0, 1], [0, 0, 1]]], prehc: 0, lambdahc: 0.238, rcut: 4.76, dcut: 0.01, rcut_in: 0.0, dcut_in: 0.0, inner_cutoff_type: distance}
  [0, 1]: {nradmax: 3, lmax: 2, nradbasemax: 3, radbasename: ChebExpCos, radparameters: [0.238], radcoefficients: [[[1, 0, 0], [1, 0, 0], [1, 0, 0]], [[0, 1, 0], [0, 1, 0], [0, 1, 0]], [[0, 0, 1], [0, 0, 1], [0, 0, 1]]], prehc: 0, lambdahc: 0.238, rcut: 4.76, dcut: 0.01, rcut_in: 0.0, dcut_in: 0.0, inner_cutoff_type: distance}
  [0, 2]: {nradmax: 3, lmax: 2, nradbasemax: 3, radbasename: ChebExpCos, radparameters: [0.238], radcoefficients: [[[1, 0, 0], [1, 0, 0], [1, 0, 0]], [[0, 1, 0], [0, 1, 0], [0, 1, 0]], [[0, 0, 1], [0, 0, 1], [0, 0, 1]]], prehc: 0, lambdahc: 0.238, rcut: 4.75, dcut: 0.01, rcut_in: 0.0, dcut_in: 0.0, inner_cutoff_type: distance}
  [0, 3]: {nradmax: 3, lmax: 2, nradbasemax: 3, radbasename: ChebExpCos, radparameters: [0.234], radcoefficients: [[[1, 0, 0], [1, 0, 0], [1, 0, 0]], [[0, 1, 0], [0, 1, 0], [0, 1, 0]], [[0, 0, 1], [0, 0, 1], [0, 0, 1]]], prehc: 0, lambdahc: 0.234, rcut: 4.675, dcut: 0.01, rcut_in: 0.0, dcut_in: 0.0, inner_cutoff_type: distance}
  [1, 0]: {nradmax: 3, lmax: 2, nradbasemax: 3, radbasename: ChebExpCos, radparameters: [0.238], radcoefficients: [[[1, 0, 0], [1, 0, 0], [1, 0, 0]], [[0, 1, 0], [0, 1, 0], [0, 1, 0]], [[0, 0, 1], [0, 0, 1], [0, 0, 1]]], prehc: 0, lambdahc: 0.238, rcut: 4.76, dcut: 0.01, rcut_in: 0.0, dcut_in: 0.0, inner_cutoff_type: distance}
  [1, 1]: {nradmax: 3, lmax: 2, nradbasemax: 3, radbasename: ChebExpCos, radparameters: [0.238], radcoefficients: [[[1, 0, 0], [1, 0, 0], [1, 0, 0]], [[0, 1, 0], [0, 1, 0], [0, 1, 0]], [[0, 0, 1], [0, 0, 1], [0, 0, 1]]], prehc: 0, lambdahc: 0.238, rcut: 4.76, dcut: 0.01, rcut_in: 0.0, dcut_in: 0.0, inner_cutoff_type: distance}
  [1, 2]: {nradmax: 3, lmax: 2, nradbasemax: 3, radbasename: ChebExpCos, radparameters: [0.238], radcoefficients: [[[1, 0, 0], [1, 0, 0], [1, 0, 0]], [[0, 1, 0], [0, 1, 0], [0, 1, 0]], [[0, 0, 1], [0, 0, 1], [0, 0, 1]]], prehc: 0, lambdahc: 0.238, rcut: 4.75, dcut: 0.01, rcut_in: 0.0, dcut_in: 0.0, inner_cutoff_type: distance}
  [1, 3]: {nradmax: 3, lmax: 2, nradbasemax: 3, radbasename: ChebExpCos, radparameters: [0.234], radcoefficients: [[[1, 0, 0], [1, 0, 0], [1, 0, 0]], [[0, 1, 0], [0, 1, 0], [0, 1, 0]], [[0, 0, 1], [0, 0, 1], [0, 0, 1]]], prehc: 0, lambdahc: 0.234, rcut: 4.675, dcut: 0.01, rcut_in: 0.0, dcut_in: 0.0, inner_cutoff_type: distance}
  [2, 0]: {nradmax: 3, lmax: 2, nradbasemax: 3, radbasename: ChebExpCos, radparameters: [0.238], radcoefficients: [[[1, 0, 0], [1, 0, 0], [1, 0, 0]], [[0, 1, 0], [0, 1, 0], [0, 1, 0]], [[0, 0, 1], [0, 0, 1], [0, 0, 1]]], prehc: 0, lambdahc: 0.238, rcut: 4.75, dcut: 0.01, rcut_in: 0.0, dcut_in: 0.0, inner_cutoff_type: distance}
  [2, 1]: {nradmax: 3, lmax: 2, nradbasemax: 3, radbasename: ChebExpCos, radparameters: [0.238], radcoefficients: [[[1, 0, 0], [1, 0, 0], [1, 0, 0]], [[0, 1, 0], [0, 1, 0], [0, 1, 0]], [[0, 0, 1], [0, 0, 1], [0, 0, 1]]], prehc: 0, lambdahc: 0.238, rcut: 4.75, dcut: 0.01, rcut_in: 0.0, dcut_in: 0.0, inner_cutoff_type: distance}
  [2, 2]: {nradmax: 3, lmax: 2, nradbasemax: 3, radbasename: ChebExpCos, radparameters: [0.27], radcoefficients: [[[1, 0, 0], [1, 0, 0], [1, 0, 0]], [[0, 1, 0], [0, 1, 0], [0, 1, 0]], [[0, 0, 1], [0, 0, 1], [0, 0, 1]]], prehc: 0, lambdahc: 0.27, rcut: 5.4, dcut: 0.01, rcut_in: 0.0, dcut_in: 0.0, inner_cutoff_type: distance}
  [2, 3]: {nradmax: 3, lmax: 2, nradbasemax: 3, radbasename: ChebExpCos, radparameters: [0.245], radcoefficients: [[[1, 0, 0], [1, 0, 0], [1, 0, 0]], [[0, 1, 0], [0, 1, 0], [0, 1, 0]], [[0, 0, 1], [0, 0, 1], [0, 0, 1]]], prehc: 0, lambdahc: 0.245, rcut: 4.9, dcut: 0.01, rcut_in: 0.0, dcut_in: 0.0, inner_cutoff_type: distance}
  [3, 0]: {nradmax: 3, lmax: 2, nradbasemax: 3, radbasename: ChebExpCos, radparameters: [0.234], radcoefficients: [[[1, 0, 0], [1, 0, 0], [1, 0, 0]], [[0, 1, 0], [0, 1, 0], [0, 1, 0]], [[0, 0, 1], [0, 0, 1], [0, 0, 1]]], prehc: 0, lambdahc: 0.234, rcut: 4.675, dcut: 0.01, rcut_in: 0.0, dcut_in: 0.0, inner_cutoff_type: distance}
  [3, 1]: {nradmax: 3, lmax: 2, nradbasemax: 3, radbasename: ChebExpCos, radparameters: [0.234], radcoefficients: [[[1, 0, 0], [1, 0, 0], [1, 0, 0]], [[0, 1, 0], [0, 1, 0], [0, 1, 0]], [[0, 0, 1], [0, 0, 1], [0, 0, 1]]], prehc: 0, lambdahc: 0.234, rcut: 4.675, dcut: 0.01, rcut_in: 0.0, dcut_in: 0.0, inner_cutoff_type: distance}
  [3, 2]: {nradmax: 3, lmax: 2, nradbasemax: 3, radbasename: ChebExpCos, radparameters: [0.245], radcoefficients: [[[1, 0, 0], [1, 0, 0], [1, 0, 0]], [[0, 1, 0], [0, 1, 0], [0, 1, 0]], [[0, 0, 1], [0, 0, 1], [0, 0, 1]]], prehc: 0, lambdahc: 0.245, rcut: 4.9, dcut: 0.01, rcut_in: 0.0, dcut_in: 0.0, inner_cutoff_type: distance}
  [3, 3]: {nradmax: 3, lmax: 2, nradbasemax: 3, radbasename: ChebExpCos, radparameters: [0.23], radcoefficients: [[[1, 0, 0], [1, 0, 0], [1, 0, 0]], [[0, 1, 0], [0, 1, 0], [0, 1, 0]], [[0, 0, 1], [0, 0, 1], [0, 0, 1]]], prehc: 0, lambdahc: 0.23, rcut: 4.59, dcut: 0.01, rcut_in: 0.0, dcut_in: 0.0, inner_cutoff_type: distance}
functions:
  0:
    - {mu0: 0, rank: 1, ndensity: 1, num_ms_combs: 1, mus: [0], ns: [1], ls: [0], ms_combs: [0], ctildes: [1.0]}
    - {mu0: 0, rank: 1, ndensity: 1, num_ms_combs: 1, mus: [1], ns: [1], ls: [0], ms_combs: [0], ctildes: [1.0]}
    - {mu0: 0, rank: 1, ndensity: 1, num_ms_combs: 1, mus: [2], ns: [1], ls: [0], ms_combs: [0], ctildes: [1.0]}
    - {mu0: 0, rank: 1, ndensity: 1, num_ms_combs: 1, mus: [3], ns: [1], ls: [0], ms_combs: [0], ctildes: [1.0]}
    - {mu0: 0, rank: 1, ndensity: 1, num_ms_combs: 1, mus: [0], ns: [2], ls: [0], ms_combs: [0], ctildes: [1.0]}
    - {mu0: 0, rank: 1, ndensity: 1, num_ms_combs: 1, mus: [1], ns: [2], ls: [0], ms_combs: [0], ctildes: [1.0]}
    - {mu0: 0, rank: 1, ndensity: 1, num_ms_combs: 1, mus: [2], ns: [2], ls: [0], ms_combs: [0], ctildes: [1.0]}
    - {mu0: 0, rank: 1, ndensity: 1, num_ms_combs: 1, mus: [3], ns: [2], ls: [0], ms_combs: [0], ctildes: [1.0]}
    - {mu0: 0, rank: 1, ndensity: 1, num_ms_combs: 1, mus: [0], ns: [3], ls: [0], ms_combs: [0], ctildes: [1.0]}
    - {mu0: 0, rank: 1, ndensity: 1, num_ms_combs: 1, mus: [1], ns: [3], ls: [0], ms_combs: [0], ctildes: [1.0]}
    - {mu0: 0, rank: 1, ndensity: 1, num_ms_combs: 1, mus: [2], ns: [3], ls: [0], ms_combs: [0], ctildes: [1.0]}
    - {mu0: 0, rank: 1, ndensity: 1, num_ms_combs: 1, mus: [3], ns: [3], ls: [0], ms_combs: [0], ctildes: [1.0]}
    - {mu0: 0, rank: 2, ndensity: 1, num_ms_combs: 1, mus: [0, 0], ns: [1, 1], ls: [0, 0], ms_combs: [0, 0], ctildes: [1.0]}
    - {mu0: 0, rank: 2, ndensity: 1, num_ms_combs: 1, mus: [0, 1], ns: [1, 1], ls: [0, 0], ms_combs: [0, 0], ctildes: [1.0]}
    - {mu0: 0, rank: 2, ndensity: 1, num_ms_combs: 1, mus: [0, 2], ns: [1, 1], ls: [0, 0], ms_combs: [0, 0], ctildes: [1.0]}
    - {mu0: 0, rank: 2, ndensity: 1, num_ms_combs: 1, mus: [0, 3], ns: [1, 1], ls: [0, 0], ms_combs: [0, 0], ctildes: [1.0]}
    - {mu0: 0, rank: 2, ndensity: 1, num_ms_combs: 1, mus: [1, 1], ns: [1, 1], ls: [0, 0], ms_combs: [0, 0], ctildes: [1.0]}
    - {mu0: 0, rank: 2, ndensity: 1, num_ms_combs: 1, mus: [1, 2], ns: [1, 1], ls: [0, 0], ms_combs: [0, 0], ctildes: [1.0]}
    - {mu0: 0, rank: 2, ndensity: 1, num_ms_combs: 1, mus: [1, 3], ns: [1, 1], ls: [0, 0], ms_combs: [0, 0], ctildes: [1.0]}
    - {mu0: 0, rank: 2, ndensity: 1, num_ms_combs: 1, mus: [2, 2], ns: [1, 1], ls: [0, 0], ms_combs: [0, 0], ctildes: [1.0]}
    - {mu0: 0, rank: 2, ndensity: 1, num_ms_combs: 1, mus: [2, 3], ns: [1, 1], ls: [0, 0], ms_combs: [0, 0], ctildes: [1.0]}
    - {mu0: 0, rank: 2, ndensity: 1, num_ms_combs: 1, mus: [3, 3], ns: [1, 1], ls: [0, 0], ms_combs: [0, 0], ctildes: [1.0]}
    - {mu0: 0, rank: 2, ndensity: 1, num_ms_combs: 1, mus: [0, 0], ns: [1, 2], ls: [0, 0], ms_combs: [0, 0], ctildes: [1.0]}
    - {mu0: 0, rank: 2, ndensity: 1, num_ms_combs: 1, mus: [0, 1], ns: [1, 2], ls: [0, 0], ms_combs: [0, 0], ctildes: [1.0]}
    - {mu0: 0, rank: 2, ndensity: 1, num_ms_combs: 1, mus: [0, 2], ns: [1, 2], ls: [0, 0], ms_combs: [0, 0], ctildes: [1.0]}
    - {mu0: 0, rank: 2, ndensity: 1, num_ms_combs: 1, mus: [0, 3], ns: [1, 2], ls: [0, 0], ms_combs: [0, 0], ctildes: [1.0]}
    - {mu0: 0, rank: 2, ndensity: 1, num_ms_combs: 1, mus: [1, 1], ns: [1, 2], ls: [0, 0], ms_combs: [0, 0], ctildes: [1.0]}
    - {mu0: 0, rank: 2, ndensity: 1, num_ms_combs: 1, mus: [1, 2], ns: [1, 2], ls: [0, 0], ms_combs: [0, 0], ctildes: [1.0]}
    - {mu0: 0, rank: 2, ndensity: 1, num_ms_combs: 1, mus: [1, 3], ns: [1, 2], ls: [0, 0], ms_combs: [0, 0], ctildes: [1.0]}
    - {mu0: 0, rank: 2, ndensity: 1, num_ms_combs: 1, mus: [2, 2], ns: [1, 2], ls: [0, 0], ms_combs: [0, 0], ctildes: [1.0]}
    - {mu0: 0, rank: 2, ndensity: 1, num_ms_combs: 1, mus: [2, 3], ns: [1, 2], ls: [0, 0], ms_combs: [0, 0], ctildes: [1.0]}
    - {mu0: 0, rank: 2, ndensity: 1, num_ms_combs: 1, mus: [3, 3], ns: [1, 2], ls: [0, 0], ms_combs: [0, 0], ctildes: [1.0]}
    - {mu0: 0, rank: 2, ndensity: 1, num_ms_combs: 1, mus: [0, 1], ns: [2, 1], ls: [0, 0], ms_combs: [0, 0], ctildes: [1.0]}
    - {mu0: 0, rank: 2, ndensity: 1, num_ms_combs: 1, mus: [0, 2], ns: [2, 1], ls: [0, 0], ms_combs: [0, 0], ctildes: [1.0]}
    - {mu0: 0, rank: 2, ndensity: 1, num_ms_combs: 1, mus: [0, 3], ns: [2, 1], ls: [0, 0], ms_combs: [0, 0], ctildes: [1.0]}
    - {mu0: 0, rank: 2, ndensity: 1, num_ms_combs: 1, mus: [1, 2], ns: [2, 1], ls: [0, 0], ms_combs: [0, 0], ctildes: [1.0]}
    - {mu0: 0, rank: 2, ndensity: 1, num_ms_combs: 1, mus: [1, 3], ns: [2, 1], ls: [0, 0], ms_combs: [0, 0], ctildes: [1.0]}
    - {mu0: 0, rank: 2, ndensity: 1, num_ms_combs: 1, mus: [2, 3], ns: [2, 1], ls: [0, 0], ms_combs: [0, 0], ctildes: [1.0]}
    - {mu0: 0, rank: 2, ndensity: 1, num_ms_combs: 1, mus: [0, 0], ns: [2, 2], ls: [0, 0], ms_combs: [0, 0], ctildes: [1.0]}
    - {mu0: 0, rank: 2, ndensity: 1, num_ms_combs: 1, mus: [0, 1], ns: [2, 2], ls: [0, 0], ms_combs: [0, 0], ctildes: [1.0]}
    - {mu0: 0, rank: 2, ndensity: 1, num_ms_combs: 1, mus: [0, 2], ns: [2, 2], ls: [0, 0], ms_combs: [0, 0], ctildes: [1.0]}
    - {mu0: 0, rank: 2, ndensity: 1, num_ms_combs: 1, mus: [0, 3], ns: [2, 2], ls: [0, 0], ms_combs: [0, 0], ctildes: [1.0]}
    - {mu0: 0, rank: 2, ndensity: 1, num_ms_combs: 1, mus: [1, 1], ns: [2, 2], ls: [0, 0], ms_combs: [0, 0], ctildes: [1.0]}
    - {mu0: 0, rank: 2, ndensity: 1, num_ms_combs: 1, mus: [1, 2], ns: [2, 2], ls: [0, 0], ms_combs: [0, 0], ctildes: [1.0]}
    - {mu0: 0, rank: 2, ndensity: 1, num_ms_combs: 1, mus: [1, 3], ns: [2, 2], ls: [0, 0], ms_combs: [0, 0], ctildes: [1.0]}
    - {mu0: 0, rank: 2, ndensity: 1, num_ms_combs: 1, mus: [2, 2], ns: [2, 2], ls: [0, 0], ms_combs: [0, 0], ctildes: [1.0]}
    - {mu0: 0, rank: 2, ndensity: 1, num_ms_combs: 1, mus: [2, 3], ns: [2, 2], ls: [0, 0], ms_combs: [0, 0], ctildes: [1.0]}
    - {mu0: 0, rank: 2, ndensity: 1, num_ms_combs: 1, mus: [3, 3], ns: [2, 2], ls: [0, 0], ms_combs: [0, 0], ctildes: [1.0]}
    - {mu0: 0, rank: 2, ndensity: 1, num_ms_combs: 3, mus: [0, 0], ns: [1, 1], ls: [1, 1], ms_combs: [-1, 1, 0, 0, 1, -1], ctildes: [0.5773502691896257, -0.5773502691896257, 0.5773502691896257]}
    - {mu0: 0, rank: 2, ndensity: 1, num_ms_combs: 3, mus: [0, 1], ns: [1, 1], ls: [1, 1], ms_combs: [-1, 1, 0, 0, 1, -1], ctildes: [0.5773502691896257, -0.5773502691896257, 0.5773502691896257]}
    - {mu0: 0, rank: 2, ndensity: 1, num_ms_combs: 3, mus: [0, 2], ns: [1, 1], ls: [1, 1], ms_combs: [-1, 1, 0, 0, 1, -1], ctildes: [0.5773502691896257, -0.5773502691896257, 0.5773502691896257]}
    - {mu0: 0, rank: 2, ndensity: 1, num_ms_combs: 3, mus: [0, 3], ns: [1, 1], ls: [1, 1], ms_combs: [-1, 1, 0, 0, 1, -1], ctildes: [0.5773502691896257, -0.5773502691896257, 0.5773502691896257]}
    - {mu0: 0, rank: 2, ndensity: 1, num_ms_combs: 3, mus: [1, 1], ns: [1, 1], ls: [1, 1], ms_combs: [-1, 1, 0, 0, 1, -1], ctildes: [0.5773502691896257, -0.5773502691896257, 0.5773502691896257]}
    - {mu0: 0, rank: 2, ndensity: 1, num_ms_combs: 3, mus: [1, 2], ns: [1, 1], ls: [1, 1], ms_combs: [-1, 1, 0, 0, 1, -1], ctildes: [0.5773502691896257, -0.5773502691896257, 0.5773502691896257]}
    - {mu0: 0, rank: 2, ndensity: 1, num_ms_combs: 3, mus: [1, 3], ns: [1, 1], ls: [1, 1], ms_combs: [-1, 1, 0, 0, 1, -1], ctildes: [0.5773502691896257, -0.5773502691896257, 0.5773502691896257]}
    - {mu0: 0, rank: 2, ndensity: 1, num_ms_combs: 3, mus: [2, 2], ns: [1, 1], ls: [1, 1], ms_combs: [-1, 1, 0, 0, 1, -1], ctildes: [0.5773502691896257, -0.5773502691896257, 0.5773502691896257]}
    - {mu0: 0, rank: 2, ndensity: 1, num_ms_combs: 3, mus: [2, 3], ns: [1, 1], ls: [1, 1], ms_combs: [-1, 1, 0, 0, 1, -1], ctildes: [0.5773502691896257, -0.5773502691896257, 0.5773502691896257]}
    - {mu0: 0, rank: 2, ndensity: 1, num_ms_combs: 3, mus: [3, 3], ns: [1, 1], ls: [1, 1], ms_combs: [-1, 1, 0, 0, 1, -1], ctildes: [0.5773502691896257, -0.5773502691896257, 0.5773502691896257]}
    - {mu0: 0, rank: 2, ndensity: 1, num_ms_combs: 3, mus: [0, 0], ns: [1, 2], ls: [1, 1], ms_combs: [-1, 1, 0, 0, 1, -1], ctildes: [0.5773502691896257, -0.5773502691896257, 0.5773502691896257]}
    - {mu0: 0, rank: 2, ndensity: 1, num_ms_combs: 3, mus: [0, 1], ns: [1, 2], ls: [1, 1], ms_combs: [-1, 1, 0, 0, 1, -1], ctildes: [0.5773502691896257, -0.5773502691896257, 0.5773502691896257]}
    - {mu0: 0, rank: 2, ndensity: 1, num_ms_combs: 3, mus: [0, 2], ns: [1, 2], ls: [1, 1], ms_combs: [-1, 1, 0, 0, 1, -1], ctildes: [0.5773502691896257, -0.5773502691896257, 0.5773502691896257]}
    - {mu0: 0, rank: 2, ndensity: 1, num_ms_combs: 3, mus: [0, 3], ns: [1, 2], ls: [1, 1], ms_combs: [-1, 1, 0, 0, 1, -1], ctildes: [0.5773502691896257, -0.5773502691896257, 0.5773502691896257]}
    - {mu0: 0, rank: 2, ndensity: 1, num_ms_combs: 3, mus: [1, 1], ns: [1, 2], ls: [1, 1], ms_combs: [-1, 1, 0, 0, 1, -1], ctildes: [0.5773502691896257, -0.5773502691896257, 0.5773502691896257]}
    - {mu0: 0, rank: 2, ndensity: 1, num_ms_combs: 3, mus: [1, 2], ns: [1, 2], ls: [1, 1], ms_combs: [-1, 1, 0, 0, 1, -1], ctildes: [0.5773502691896257, -0.5773502691896257, 0.5773502691896257]}
    - {mu0: 0, rank: 2, ndensity: 1, num_ms_combs: 3, mus: [1, 3], ns: [1, 2], ls: [1, 1], ms_combs: [-1, 1, 0, 0, 1, -1], ctildes: [0.5773502691896257, -0.5773502691896257, 0.5773502691896257]}
    - {mu0: 0, rank: 2, ndensity: 1, num_ms_combs: 3, mus: [2, 2], ns: [1, 2], ls: [1, 1], ms_combs: [-1, 1, 0, 0, 1, -1], ctildes: [0.5773502691896257, -0.5773502691896257, 0.5773502691896257]}
    - {mu0: 0, rank: 2, ndensity: 1, num_ms_combs: 3, mus: [2, 3], ns: [1, 2], ls: [1, 1], ms_combs: [-1, 1, 0, 0, 1, -1], ctildes: [0.5773502691896257, -0.5773502691896257, 0.5773502691896257]}
    - {mu0: 0, rank: 2, ndensity: 1, num_ms_combs: 3, mus: [3, 3], ns: [1, 2], ls: [1, 1], ms_combs: [-1, 1, 0, 0, 1, -1], ctildes: [0.5773502691896257, -0.5773502691896257, 0.5773502691896257]}
    - {mu0: 0, rank: 2, ndensity: 1, num_ms_combs: 3, mus: [0, 1], ns: [2, 1], ls: [1, 1], ms_combs: [-1, 1, 0, 0, 1, -1], ctildes: [0.5773502691896257, -0.5773502691896257, 0.5773502691896257]}
    - {mu0: 0, rank: 2, ndensity: 1, num_ms_combs: 3, mus: [0, 2], ns: [2, 1], ls: [1, 1], ms_combs: [-1, 1, 0, 0, 1, -1], ctildes: [0.5773502691896257, -0.5773502691896257, 0.5773502691896257]}
    - {mu0: 0, rank: 2, ndensity: 1, num_ms_combs: 3, mus: [0, 3], ns: [2, 1], ls: [1, 1], ms_combs: [-1, 1, 0, 0, 1, -1], ctildes: [0.5773502691896257, -0.5773502691896257, 0.5773502691896257]}
    - {mu0: 0, rank: 2, ndensity: 1, num_ms_combs: 3, mus: [1, 2], ns: [2, 1], ls: [1, 1], ms_combs: [-1, 1, 0, 0, 1, -1], ctildes: [0.5773502691896257, -0.5773502691896257, 0.5773502691896257]}
    - {mu0: 0, rank: 2, ndensity: 1, num_ms_combs: 3, mus: [1, 3], ns: [2, 1], ls: [1, 1], ms_combs: [-1, 1, 0, 0, 1, -1], ctildes: [0.5773502691896257, -0.5773502691896257, 0.5773502691896257]}
    - {mu0: 0, rank: 2, ndensity: 1, num_ms_combs: 3, mus: [2, 3], ns: [2, 1], ls: [1, 1], ms_combs: [-1, 1, 0, 0, 1, -1], ctildes: [0.5773502691896257, -0.5773502691896257, 0.5773502691896257]}
    - {mu0: 0, rank: 2, ndensity: 1, num_ms_combs: 3, mus: [0, 0], ns: [2, 2], ls: [1, 1], ms_combs: [-1, 1, 0, 0, 1, -1], ctildes: [0.5773502691896257, -0.5773502691896257, 0.5773502691896257]}
    - {mu0: 0, rank: 2, ndensity: 1, num_ms_combs: 3, mus: [0, 1], ns: [2, 2], ls: [1, 1], ms_combs: [-1, 1, 0, 0, 1, -1], ctildes: [0.5773502691896257, -0.5773502691896257, 0.5773502691896257]}
    - {mu0: 0, rank: 2, ndensity: 1, num_ms_combs: 3, mus: [0, 2], ns: [2, 2], ls: [1, 1], ms_combs: [-1, 1, 0, 0, 1, -1], ctildes: [0.5773502691896257, -0.5773502691896257, 0.5773502691896257]}
    - {mu0: 0, rank: 2, ndensity: 1, num_ms_combs: 3, mus: [0, 3], ns: [2, 2], ls: [1, 1], ms_combs: [-1, 1, 0, 0, 1, -1], ctildes: [0.5773502691896257, -0.5773502691896257, 0.5773502691896257]}
    - {mu0: 0, rank: 2, ndensity: 1, num_ms_combs: 3, mus: [1, 1], ns: [2, 2], ls: [1, 1], ms_combs: [-1, 1, 0, 0, 1, -1], ctildes: [0.5773502691896257, -0.5773502691896257, 0.5773502691896257]}
    - {mu0: 0, rank: 2, ndensity: 1, num_ms_combs: 3, mus: [1, 2], ns: [2, 2], ls: [1, 1], ms_combs: [-1, 1, 0, 0, 1, -1], ctildes: [0.5773502691896257, -0.5773502691896257, 0.5773502691896257]}
    - {mu0: 0, rank: 2, ndensity: 1, num_ms_combs: 3, mus: [1, 3], ns: [2, 2], ls: [1, 1], ms_combs: [-1, 1, 0, 0, 1, -1], ctildes: [0.5773502691896257, -0.5773502691896257, 0.5773502691896257]}
    - {mu0: 0, rank: 2, ndensity: 1, num_ms_combs: 3, mus: [2, 2], ns: [2, 2], ls: [1, 1], ms_combs: [-1, 1, 0, 0, 1, -1], ctildes: [0.5773502691896257, -0.5773502691896257, 0.5773502691896257]}
    - {mu0: 0, rank: 2, ndensity: 1, num_ms_combs: 3, mus: [2, 3], ns: [2, 2], ls: [1, 1], ms_combs: [-1, 1, 0, 0, 1, -1], ctildes: [0.5773502691896257, -0.5773502691896257, 0.5773502691896257]}
    - {mu0: 0, rank: 2, ndensity: 1, num_ms_combs: 3, mus: [3, 3], ns: [2, 2], ls: [1, 1], ms_combs: [-1, 1, 0, 0, 1, -1], ctildes: [0.5773502691896257, -0.5773502691896257, 0.5773502691896257]}
    - {mu0: 0, rank: 2, ndensity: 1, num_ms_combs: 5, mus: [0, 0], ns: [1, 1], ls: [2, 2], ms_combs: [-2, 2, -1, 1, 0, 0, 1, -1, 2, -2], ctildes: [0.4472135954999579, -0.4472135954999579, 0.4472135954999579, -0.4472135954999579, 0.4472135954999579]}
    - {mu0: 0, rank: 2, ndensity: 1, num_ms_combs: 5, mus: [0, 1], ns: [1, 1], ls: [2, 2], ms_combs: [-2, 2, -1, 1, 0, 0, 1, -1, 2, -2], ctildes: [0.4472135954999579, -0.4472135954999579, 0.4472135954999579, -0.4472135954999579, 0.4472135954999579]}
    - {mu0: 0, rank: 2, ndensity: 1, num_ms_combs: 5, mus: [0, 2], ns: [1, 1], ls: [2, 2], ms_combs: [-2, 2, -1, 1, 0, 0, 1, -1, 2, -2], ctildes: [0.4472135954999579, -0.4472135954999579, 0.4472135954999579, -0.4472135954999579, 0.4472135954999579]}
    - {mu0: 0, rank: 2, ndensity: 1, num_ms_combs: 5, mus: [0, 3], ns: [1, 1], ls: [2, 2], ms_combs: [-2, 2, -1, 1, 0, 0, 1, -1, 2, -2], ctildes: [0.4472135954999579, -0.4472135954999579, 0.4472135954999579, -0.4472135954999579, 0.4472135954999579]}
    - {mu0: 0, rank: 2, ndensity: 1, num_ms_combs: 5, mus: [1, 1], ns: [1, 1], ls: [2, 2], ms_combs: [-2, 2, -1, 1, 0, 0, 1, -1, 2, -2], ctildes: [0.4472135954999579, -0.4472135954999579, 0.4472135954999579, -0.4472135954999579, 0.4472135954999579]}
    - {mu0: 0, rank: 2, ndensity: 1, num_ms_combs: 5, mus: [1, 2], ns: [1, 1], ls: [2, 2], ms_combs: [-2, 2, -1, 1, 0, 0, 1, -1, 2, -2], ctildes: [0.4472135954999579, -0.4472135954999579, 0.4472135954999579, -0.4472135954999579, 0.4472135954999579]}
    - {mu0: 0, rank: 2, ndensity: 1, num_ms_combs: 5, mus: [1, 3], ns: [1, 1], ls: [2, 2], ms_combs: [-2, 2, -1, 1, 0, 0, 1, -1, 2, -2], ctildes: [0.4472135954999579, -0.4472135954999579, 0.4472135954999579, -0.4472135954999579, 0.4472135954999579]}
    - {mu0: 0, rank: 2, ndensity: 1, num_ms_combs: 5, mus: [2, 2], ns: [1, 1], ls: [2, 2], ms_combs: [-2, 2, -1, 1, 0, 0, 1, -1, 2, -2], ctildes: [0.4472135954999579, -0.4472135954999579, 0.4472135954999579, -0.4472135954999579, 0.4472135954999579]}
    - {mu0: 0, rank: 2, ndensity: 1, num_ms_combs: 5, mus: [2, 3], ns: [1, 1], ls: [2, 2], ms_combs: [-2, 2, -1, 1, 0, 0, 1, -1, 2, -2], ctildes: [0.4472135954999579, -0.4472135954999579, 0.4472135954999579, -0.4472135954999579, 0.4472135954999579]}
    - {mu0: 0, rank: 2, ndensity: 1, num_ms_combs: 5, mus: [3, 3], ns: [1, 1], ls: [2, 2], ms_combs: [-2, 2, -1, 1, 0, 0, 1, -1, 2, -2], ctildes: [0.4472135954999579, -0.4472135954999579, 0.4472135954999579, -0.4472135954999579, 0.4472135954999579]}
    - {mu0: 0, rank: 2, ndensity: 1, num_ms_combs: 5, mus: [0, 0], ns: [1, 2], ls: [2, 2], ms_combs: [-2, 2, -1, 1, 0, 0, 1, -1, 2, -2], ctildes: [0.4472135954999579, -0.4472135954999579, 0.4472135954999579, -0.4472135954999579, 0.4472135954999579]}
    - {mu0: 0, rank: 2, ndensity: 1, num_ms_combs: 5, mus: [0, 1], ns: [1, 2], ls: [2, 2], ms_combs: [-2, 2, -1, 1, 0, 0, 1, -1, 2, -2], ctildes: [0.4472135954999579, -0.4472135954999579, 0.4472135954999579, -0.4472135954999579, 0.4472135954999579]}
    - {mu0: 0, rank: 2, ndensity: 1, num_ms_combs: 5, mus: [0, 2], ns: [1, 2], ls: [2, 2], ms_combs: [-2, 2, -1, 1, 0, 0, 1, -1, 2, -2], ctildes: [0.4472135954999579, -0.4472135954999579, 0.4472135954999579, -0.4472135954999579, 0.4472135954999579]}
    - {mu0: 0, rank: 2, ndensity: 1, num_ms_combs: 5, mus: [0, 3], ns: [1, 2], ls: [2, 2], ms_combs: [-2, 2, -1, 1, 0, 0, 1, -1, 2, -2], ctildes: [0.4472135954999579, -0.4472135954999579, 0.4472135954999579, -0.4472135954999579, 0.4472135954999579]}
    - {mu0: 0, rank: 2, ndensity: 1, num_ms_combs: 5, mus: [1, 1], ns: [1, 2], ls: [2, 2], ms_combs: [-2, 2, -1, 1, 0, 0, 1, -1, 2, -2], ctildes: [0.4472135954999579, -0.4472135954999579, 0.4472135954999579, -0.4472135954999579, 0.4472135954999579]}
    - {mu0: 0, rank: 2, ndensity: 1, num_ms_combs: 5, mus: [1, 2], ns: [1, 2], ls: [2, 2], ms_combs: [-2, 2, -1, 1, 0, 0, 1, -1, 2, -2], ctildes: [0.4472135954999579, -0.4472135954999579, 0.4472135954999579, -0.4472135954999579, 0.4472135954999579]}
    - {mu0: 0, rank: 2, ndensity: 1, num_ms_combs: 5, mus: [1, 3], ns: [1, 2], ls: [2, 2], ms_combs: [-2, 2, -1, 1, 0, 0, 1, -1, 2, -2], ctildes: [0.4472135954999579, -0.4472135954999579, 0.4472135954999579, -0.4472135954999579, 0.4472135954999579]}
    - {mu0: 0, rank: 2, ndensity: 1, num_ms_combs: 5, mus: [2, 2], ns: [1, 2], ls: [2, 2], ms_combs: [-2, 2, -1, 1, 0, 0, 1, -1, 2, -2], ctildes: [0.4472135954999579, -0.4472135954999579, 0.4472135954999579, -0.4472135954999579, 0.4472135954999579]}
    - {mu0: 0, rank: 2, ndensity: 1, num_ms_combs: 5, mus: [2, 3], ns: [1, 2], ls: [2, 2], ms_combs: [-2, 2, -1, 1, 0, 0, 1, -1, 2, -2], ctildes: [0.4472135954999579, -0.4472135954999579, 0.4472135954999579, -0.4472135954999579, 0.4472135954999579]}
    - {mu0: 0, rank: 2, ndensity: 1, num_ms_combs: 5, mus: [3, 3], ns: [1, 2], ls: [2, 2], ms_combs: [-2, 2, -1, 1, 0, 0, 1, -1, 2, -2], ctildes: [0.4472135954999579, -0.4472135954999579, 0.4472135954999579, -0.4472135954999579, 0.4472135954999579]}
    - {mu0: 0, rank: 2, ndensity: 1, num_ms_combs: 5, mus: [0, 1], ns: [2, 1], ls: [2, 2], ms_combs: [-2, 2, -1, 1, 0, 0, 1, -1, 2, -2], ctildes: [0.4472135954999579, -0.4472135954999579, 0.4472135954999579, -0.4472135954999579, 0.4472135954999579]}
    - {mu0: 0, rank: 2, ndensity: 1, num_ms_combs: 5, mus: [0, 2], ns: [2, 1], ls: [2, 2], ms_combs: [-2, 2, -1, 1, 0, 0, 1, -1, 2, -2], ctildes: [0.4472135954999579, -0.4472135954999579, 0.4472135954999579, -0.4472135954999579, 0.4472135954999579]}
    - {mu0: 0, rank: 2, ndensity: 1, num_ms_combs: 5, mus: [0, 3], ns: [2, 1], ls: [2, 2], ms_combs: [-2, 2, -1, 1, 0, 0, 1, -1, 2, -2], ctildes: [0.4472135954999579, -0.4472135954999579, 0.4472135954999579, -0.4472135954999579, 0.4472135954999579]}
    - {mu0: 0, rank: 2, ndensity: 1, num_ms_combs: 5, mus: [1, 2], ns: [2, 1], ls: [2, 2], ms_combs: [-2, 2, -1, 1, 0, 0, 1, -1, 2, -2], ctildes: [0.4472135954999579, -0.4472135954999579, 0.4472135954999579, -0.4472135954999579, 0.4472135954999579]}
    - {mu0: 0, rank: 2, ndensity: 1, num_ms_combs: 5, mus: [1, 3], ns: [2, 1], ls: [2, 2], ms_combs: [-2, 2, -1, 1, 0, 0, 1, -1, 2, -2], ctildes: [0.4472135954999579, -0.4472135954999579, 0.4472135954999579, -0.4472135954999579, 0.4472135954999579]}
    - {mu0: 0, rank: 2, ndensity: 1, num_ms_combs: 5, mus: [2, 3], ns: [2, 1], ls: [2, 2], ms_combs: [-2, 2, -1, 1, 0, 0, 1, -1, 2, -2], ctildes: [0.4472135954999579, -0.4472135954999579, 0.4472135954999579, -0.4472135954999579, 0.4472135954999579]}
    - {mu0: 0, rank: 2, ndensity: 1, num_ms_combs: 5, mus: [0, 0], ns: [2, 2], ls: [2, 2], ms_combs: [-2, 2, -1, 1, 0, 0, 1, -1, 2, -2], ctildes: [0.4472135954999579, -0.4472135954999579, 0.4472135954999579, -0.4472135954999579, 0.4472135954999579]}
    - {mu0: 0, rank: 2, ndensity: 1, num_ms_combs: 5, mus: [0, 1], ns: [2, 2], ls: [2, 2], ms_combs: [-2, 2, -1, 1, 0, 0, 1, -1, 2, -2], ctildes: [0.4472135954999579, -0.4472135954999579, 0.4472135954999579, -0.4472135954999579, 0.4472135954999579]}
    - {mu0: 0, rank: 2, ndensity: 1, num_ms_combs: 5, mus: [0, 2], ns: [2, 2], ls: [2, 2], ms_combs: [-2, 2, -1, 1, 0, 0, 1, -1, 2, -2], ctildes: [0.4472135954999579, -0.4472135954999579, 0.4472135954999579, -0.4472135954999579, 0.4472135954999579]}
    - {mu0: 0, rank: 2, ndensity: 1, num_ms_combs: 5, mus: [0, 3], ns: [2, 2], ls: [2, 2], ms_combs: [-2, 2, -1, 1, 0, 0, 1, -1, 2, -2], ctildes: [0.4472135954999579, -0.4472135954999579, 0.4472135954999579, -0.4472135954999579, 0.4472135954999579]}
    - {mu0: 0, rank: 2, ndensity: 1, num_ms_combs: 5, mus: [1, 1], ns: [2, 2], ls: [2, 2], ms_combs: [-2, 2, -1, 1, 0, 0, 1, -1, 2, -2], ctildes: [0.4472135954999579, -0.4472135954999579, 0.4472135954999579, -0.4472135954999579, 0.4472135954999579]}
    - {mu0: 0, rank: 2, ndensity: 1, num_ms_combs: 5, mus: [1, 2], ns: [2, 2], ls: [2, 2], ms_combs: [-2, 2, -1, 1, 0, 0, 1, -1, 2, -2], ctildes: [0.4472135954999579, -0.4472135954999579, 0.4472135954999579, -0.4472135954999579, 0.4472135954999579]}
    - {mu0: 0, rank: 2, ndensity: 1, num_ms_combs: 5, mus: [1, 3], ns: [2, 2], ls: [2, 2], ms_combs: [-2, 2, -1, 1, 0, 0, 1, -1, 2, -2], ctildes: [0.4472135954999579, -0.4472135954999579, 0.4472135954999579, -0.4472135954999579, 0.4472135954999579]}
    - {mu0: 0, rank: 2, ndensity: 1, num_ms_combs: 5, mus: [2, 2], ns: [2, 2], ls: [2, 2], ms_combs: [-2, 2, -1, 1, 0, 0, 1, -1, 2, -2], ctildes: [0.4472135954999579, -0.4472135954999579, 0.4472135954999579, -0.4472135954999579, 0.4472135954999579]}
    - {mu0: 0, rank: 2, ndensity: 1, num_ms_combs: 5, mus: [2, 3], ns: [2, 2], ls: [2, 2], ms_combs: [-2, 2, -1, 1, 0, 0, 1, -1, 2, -2], ctildes: [0.4472135954999579, -0.4472135954999579, 0.4472135954999579, -0.4472135954999579, 0.4472135954999579]}
    - {mu0: 0, rank: 2, ndensity: 1, num_ms_combs: 5, mus: [3, 3], ns: [2, 2], ls: [2, 2], ms_combs: [-2, 2, -1, 1, 0, 0, 1, -1, 2, -2], ctildes: [0.4472135954999579, -0.4472135954999579, 0.4472135954999579, -0.4472135954999579, 0.4472135954999579]}
    - {mu0: 0, rank: 3, ndensity: 1, num_ms_combs: 9, mus: [0, 0, 0], ns: [1, 1, 1], ls: [1, 1, 2], ms_combs: [-1, -1, 2, -1, 0, 1, -1, 1, 0, 0, -1, 1, 0, 0, 0, 0, 1, -1, 1, -1, 0, 1, 0, -1, 1, 1, -2], ctildes: [0.4472135954999579, -0.31622776601683794, 0.18257418583505536, -0.31622776601683794, 0.3651483716701107, -0.31622776601683794, 0.18257418583505536, -0.31622776601683794, 0.4472135954999579]}
    - {mu0: 0, rank: 3, ndensity: 1, num_ms_combs: 9, mus: [0, 0, 1], ns: [1, 1, 1], ls: [1, 1, 2], ms_combs: [-1, -1, 2, -1, 0, 1, -1, 1, 0, 0, -1, 1, 0, 0, 0, 0, 1, -1, 1, -1, 0, 1, 0, -1, 1, 1, -2], ctildes: [0.4472135954999579, -0.31622776601683794, 0.18257418583505536, -0.31622776601683794, 0.3651483716701107, -0.31622776601683794, 0.18257418583505536, -0.31622776601683794, 0.4472135954999579]}
    - {mu0: 0, rank: 3, ndensity: 1, num_ms_combs: 9, mus: [0, 0, 2], ns: [1, 1, 1], ls: [1, 1, 2], ms_combs: [-1, -1, 2, -1, 0, 1, -1, 1, 0, 0, -1, 1, 0, 0, 0, 0, 1, -1, 1, -1, 0, 1, 0, -1, 1, 1, -2], ctildes: [0.4472135954999579, -0.31622776601683794, 0.18257418583505536, -0.31622776601683794, 0.3651483716701107, -0.31622776601683794, 0.18257418583505536, -0.31622776601683794, 0.4472135954999579]}
    - {mu0: 0, rank: 3, ndensity: 1, num_ms_combs: 9, mus: [0, 0, 3], ns: [1, 1, 1], ls: [1, 1, 2], ms_combs: [-1, -1, 2, -1, 0, 1, -1, 1, 0, 0, -1, 1, 0, 0, 0, 0, 1, -1, 1, -1, 0, 1, 0, -1, 1, 1, -2], ctildes: [0.4472135954999579, -0.31622776601683794, 0.18257418583505536, -0.31622776601683794, 0.3651483716701107, -0.31622776601683794, 0.18257418583505536, -0.31622776601683794, 0.4472135954999579]}
    - {mu0: 0, rank: 3, ndensity: 1, num_ms_combs: 9, mus: [0, 1, 1], ns: [1, 1, 1], ls: [1, 1, 2], ms_combs: [-1, -1, 2, -1, 0, 1, -1, 1, 0, 0, -1, 1, 0, 0, 0, 0, 1, -1, 1, -1, 0, 1, 0, -1, 1, 1, -2], ctildes: [0.4472135954999579, -0.31622776601683794, 0.18257418583505536, -0.31622776601683794, 0.3651483716701107, -0.31622776601683794, 0.18257418583505536, -0.31622776601683794, 0.4472135954999579]}
    - {mu0: 0, rank: 3, ndensity: 1, num_ms_combs: 9, mus: [0, 1, 2], ns: [1, 1, 1], ls: [1, 1, 2], ms_combs: [-1, -1, 2, -1, 0, 1, -1, 1, 0, 0, -1, 1, 0, 0, 0, 0, 1, -1, 1, -1, 0, 1, 0, -1, 1, 1, -2], ctildes: [0.4472135954999579, -0.31622776601683794, 0.18257418583505536, -0.31622776601683794, 0.3651483716701107, -0.31622776601683794, 0.18257418583505536, -0.31622776601683794, 0.4472135954999579]}
    - {mu0: 0, rank: 3, ndensity: 1, num_ms_combs: 9, mus: [0, 1, 3], ns: [1, 1, 1], ls: [1, 1, 2], ms_combs: [-1, -1, 2, -1, 0, 1, -1, 1, 0, 0, -1, 1, 0, 0, 0, 0, 1, -1, 1, -1, 0, 1, 0, -1, 1, 1, -2], ctildes: [0.4472135954999579, -0.31622776601683794, 0.18257418583505536, -0.31622776601683794, 0.3651483716701107, -0.31622776601683794, 0.18257418583505536, -0.31622776601683794, 0.4472135954999579]}
    - {mu0: 0, rank: 3, ndensity: 1, num_ms_combs: 9, mus: [0, 2, 2], ns: [1, 1, 1], ls: [1, 1, 2], ms_combs: [-1, -1, 2, -1, 0, 1, -1, 1, 0, 0, -1, 1, 0, 0, 0, 0, 1, -1, 1, -1, 0, 1, 0, -1, 1, 1, -2], ctildes: [0.4472135954999579, -0.31622776601683794, 0.18257418583505536, -0.31622776601683794, 0.3651483716701107, -0.31622776601683794, 0.18257418583505536, -0.31622776601683794, 0.4472135954999579]}
    - {mu0: 0, rank: 3, ndensity: 1, num_ms_combs: 9, mus: [0, 2, 3], ns: [1, 1, 1], ls: [1, 1, 2], ms_combs: [-1, -1, 2, -1, 0, 1, -1, 1, 0, 0, -1, 1, 0, 0, 0, 0, 1, -1, 1, -1, 0, 1, 0, -1, 1, 1, -2], ctildes: [0.4472135954999579, -0.31622776601683794, 0.18257418583505536, -0.31622776601683794, 0.3651483716701107, -0.31622776601683794, 0.18257418583505536, -0.31622776601683794, 0.4472135954999579]}
    - {mu0: 0, rank: 3, ndensity: 1, num_ms_combs: 9, mus: [0, 3, 3], ns: [1, 1, 1], ls: [1, 1, 2], ms_combs: [-1, -1, 2, -1, 0, 1, -1, 1, 0, 0, -1, 1, 0, 0, 0, 0, 1, -1, 1, -1, 0, 1, 0, -1, 1, 1, -2], ctildes: [0.4472135954999579, -0.31622776601683794, 0.18257418583505536, -0.31622776601683794, 0.3651483716701107, -0.31622776601683794, 0.18257418583505536, -0.31622776601683794, 0.4472135954999579]}
    - {mu0: 0, rank: 3, ndensity: 1, num_ms_combs: 9, mus: [1, 1, 1], ns: [1, 1, 1], ls: [1, 1, 2], ms_combs: [-1, -1, 2, -1, 0, 1, -1, 1, 0, 0, -1, 1, 0, 0, 0, 0, 1, -1, 1, -1, 0, 1, 0, -1, 1, 1, -2], ctildes: [0.4472135954999579, -0.31622776601683794, 0.18257418583505536, -0.31622776601683794, 0.3651483716701107, -0.31622776601683794, 0.18257418583505536, -0.31622776601683794, 0.4472135954999579]}
    - {mu0: 0, rank: 3, ndensity: 1, num_ms_combs: 9, mus: [1, 1, 2], ns: [1, 1, 1], ls: [1, 1, 2], ms_combs: [-1, -1, 2, -1, 0, 1, -1, 1, 0, 0, -1, 1, 0, 0, 0, 0, 1, -1, 1, -1, 0, 1, 0, -1, 1, 1, -2], ctildes: [0.4472135954999579, -0.31622776601683794, 0.18257418583505536, -0.31622776601683794, 0.3651483716701107, -0.31622776601683794, 0.18257418583505536, -0.31622776601683794, 0.4472135954999579]}
    - {mu0: 0, rank: 3, ndensity: 1, num_ms_combs: 9, mus: [1, 1, 3], ns: [1, 1, 1], ls: [1, 1, 2], ms_combs: [-1, -1, 2, -1, 0, 1, -1, 1, 0, 0, -1, 1, 0, 0, 0, 0, 1, -1, 1, -1, 0, 1, 0, -1, 1, 1, -2], ctildes: [0.4472135954999579, -0.31622776601683794, 0.18257418583505536, -0.31622776601683794, 0.3651483716701107, -0.31622776601683794, 0.18257418583505536, -0.31622776601683794, 0.4472135954999579]}
    - {mu0: 0, rank: 3, ndensity: 1, num_ms_combs: 9, mus: [1, 2, 2], ns: [1, 1, 1], ls: [1, 1, 2], ms_combs: [-1, -1, 2, -1, 0, 1, -1, 1, 0, 0, -1, 1, 0, 0, 0, 0, 1, -1, 1, -1, 0, 1, 0, -1, 1, 1, -2], ctildes: [0.4472135954999579, -0.31622776601683794, 0.18257418583505536, -0.31622776601683794, 0.3651483716701107, -0.31622776601683794, 0.18257418583505536, -0.31622776601683794, 0.4472135954999579]}
    - {mu0: 0, rank: 3, ndensity: 1, num_ms_combs: 9, mus: [1, 2, 3], ns: [1, 1, 1], ls: [1, 1, 2], ms_combs: [-1, -1, 2, -1, 0, 1, -1, 1, 0, 0, -1, 1, 0, 0, 0, 0, 1, -1, 1, -1, 0, 1, 0, -1, 1, 1, -2], ctildes: [0.4472135954999579, -0.31622776601683794, 0.18257418583505536, -0.31622776601683794, 0.3651483716701107, -0.31622776601683794, 0.18257418583505536, -0.31622776601683794, 0.4472135954999579]}
    - {mu0: 0, rank: 3, ndensity: 1, num_ms_combs: 9, mus: [1, 3, 3], ns: [1, 1, 1], ls: [1, 1, 2], ms_combs: [-1, -1, 2, -1, 0, 1, -1, 1, 0, 0, -1, 1, 0, 0, 0, 0, 1, -1, 1, -1, 0, 1, 0, -1, 1, 1, -2], ctildes: [0.4472135954999579, -0.31622776601683794, 0.18257418583505536, -0.31622776601683794, 0.3651483716701107, -0.31622776601683794, 0.18257418583505536, -0.31622776601683794, 0.4472135954999579]}
    - {mu0: 0, rank: 3, ndensity: 1, num_ms_combs: 9, mus: [2, 2, 2], ns: [1, 1, 1], ls: [1, 1, 2], ms_combs: [-1, -1, 2, -1, 0, 1, -1, 1, 0, 0, -1, 1, 0, 0, 0, 0, 1, -1, 1, -1, 0, 1, 0, -1, 1, 1, -2], ctildes: [0.4472135954999579, -0.31622776601683794, 0.18257418583505536, -0.31622776601683794, 0.3651483716701107, -0.31622776601683794, 0.18257418583505536, -0.31622776601683794, 0.4472135954999579]}
    - {mu0: 0, rank: 3, ndensity: 1, num_ms_combs: 9, mus: [2, 2, 3], ns: [1, 1, 1], ls: [1, 1, 2], ms_combs: [-1, -1, 2, -1, 0, 1, -1, 1, 0, 0, -1, 1, 0, 0, 0, 0, 1, -1, 1, -1, 0, 1, 0, -1, 1, 1, -2], ctildes: [0.4472135954999579, -0.31622776601683794, 0.18257418583505536, -0.31622776601683794, 0.3651483716701107, -0.31622776601683794, 0.18257418583505536, -0.31622776601683794, 0.4472135954999579]}
    - {mu0: 0, rank: 3, ndensity: 1, num_ms_combs: 9, mus: [2, 3, 3], ns: [1, 1, 1], ls: [1, 1, 2], ms_combs: [-1, -1, 2, -1, 0, 1, -1, 1, 0, 0, -1, 1, 0, 0, 0, 0, 1, -1, 1, -1, 0, 1, 0, -1, 1, 1, -2], ctildes: [0.4472135954999579, -0.31622776601683794, 0.18257418583505536, -0.31622776601683794, 0.3651483716701107, -0.31622776601683794, 0.18257418583505536, -0.31622776601683794, 0.4472135954999579]}
    - {mu0: 0, rank: 3, ndensity: 1, num_ms_combs: 9, mus: [3, 3, 3], ns: [1, 1, 1], ls: [1, 1, 2], ms_combs: [-1, -1, 2, -1, 0, 1, -1, 1, 0, 0, -1, 1, 0, 0, 0, 0, 1, -1, 1, -1, 0, 1, 0, -1, 1, 1, -2], ctildes: [0.4472135954999579, -0.31622776601683794, 0.18257418583505536, -0.31622776601683794, 0.3651483716701107, -0.31622776601683794, 0.18257418583505536, -0.31622776601683794, 0.4472135954999579]}
    - {mu0: 0, rank: 3, ndensity: 1, num_ms_combs: 9, mus: [0, 0, 1], ns: [1, 1, 1], ls: [1, 2, 1], ms_combs: [-1, 0, 1, -1, 1, 0, -1, 2, -1, 0, -1, 1, 0, 0, 0, 0, 1, -1, 1, -2, 1, 1, -1, 0, 1, 0, -1], ctildes: [0.18257418583505536, -0.3162277660168379, 0.4472135954999579, -0.3162277660168379, 0.3651483716701107, -0.3162277660168379, 0.4472135954999579, -0.3162277660168379, 0.18257418583505536]}
    - {mu0: 0, rank: 3, ndensity: 1, num_ms_combs: 9, mus: [0, 0, 2], ns: [1, 1, 1], ls: [1, 2, 1], ms_combs: [-1, 0, 1, -1, 1, 0, -1, 2, -1, 0, -1, 1, 0, 0, 0, 0, 1, -1, 1, -2, 1, 1, -1, 0, 1, 0, -1], ctildes: [0.18257418583505536, -0.3162277660168379, 0.4472135954999579, -0.3162277660168379, 0.3651483716701107, -0.3162277660168379, 0.4472135954999579, -0.3162277660168379, 0.18257418583505536]}
    - {mu0: 0, rank: 3, ndensity: 1, num_ms_combs: 9, mus: [0, 0, 3], ns: [1, 1, 1], ls: [1, 2, 1], ms_combs: [-1, 0, 1, -1, 1, 0, -1, 2, -1, 0, -1, 1, 0, 0, 0, 0, 1, -1, 1, -2, 1, 1, -1, 0, 1, 0, -1], ctildes: [0.18257418583505536, -0.3162277660168379, 0.4472135954999579, -0.3162277660168379, 0.3651483716701107, -0.3162277660168379, 0.4472135954999579, -0.3162277660168379, 0.18257418583505536]}
    - {mu0: 0, rank: 3, ndensity: 1, num_ms_combs: 9, mus: [0, 1, 2], ns: [1, 1, 1], ls: [1, 2, 1], ms_combs: [-1, 0, 1, -1, 1, 0, -1, 2, -1, 0, -1, 1, 0, 0, 0, 0, 1, -1, 1, -2, 1, 1, -1, 0, 1, 0, -1], ctildes: [0.18257418583505536, -0.3162277660168379, 0.4472135954999579, -0.3162277660168379, 0.3651483716701107, -0.3162277660168379, 0.4472135954999579, -0.3162277660168379, 0.18257418583505536]}
    - {mu0: 0, rank: 3, ndensity: 1, num_ms_combs: 9, mus: [0, 1, 3], ns: [1, 1, 1], ls: [1, 2, 1], ms_combs: [-1, 0, 1, -1, 1, 0, -1, 2, -1, 0, -1, 1, 0, 0, 0, 0, 1, -1, 1, -2, 1, 1, -1, 0, 1, 0, -1], ctildes: [0.18257418583505536, -0.3162277660168379, 0.4472135954999579, -0.3162277660168379, 0.3651483716701107, -0.3162277660168379, 0.4472135954999579, -0.3162277660168379, 0.18257418583505536]}
    - {mu0: 0, rank: 3, ndensity: 1, num_ms_combs: 9, mus: [0, 2, 3], ns: [1, 1, 1], ls: [1, 2, 1], ms_combs: [-1, 0, 1, -1, 1, 0, -1, 2, -1, 0, -1, 1, 0, 0, 0, 0, 1, -1, 1, -2, 1, 1, -1, 0, 1, 0, -1], ctildes: [0.18257418583505536, -0.3162277660168379, 0.4472135954999579, -0.3162277660168379, 0.3651483716701107, -0.3162277660168379, 0.4472135954999579, -0.3162277660168379, 0.18257418583505536]}
    - {mu0: 0, rank: 3, ndensity: 1, num_ms_combs: 9, mus: [1, 1, 2], ns: [1, 1, 1], ls: [1, 2, 1], ms_combs: [-1, 0, 1, -1, 1, 0, -1, 2, -1, 0, -1, 1, 0, 0, 0, 0, 1, -1, 1, -2, 1, 1, -1, 0, 1, 0, -1], ctildes: [0.18257418583505536, -0.3162277660168379, 0.4472135954999579, -0.3162277660168379, 0.3651483716701107, -0.3162277660168379, 0.4472135954999579, -0.3162277660168379, 0.18257418583505536]}
    - {mu0: 0, rank: 3, ndensity: 1, num_ms_combs: 9, mus: [1, 1, 3], ns: [1, 1, 1], ls: [1, 2, 1], ms_combs: [-1, 0, 1, -1, 1, 0, -1, 2, -1, 0, -1, 1, 0, 0, 0, 0, 1, -1, 1, -2, 1, 1, -1, 0, 1, 0, -1], ctildes: [0.18257418583505536, -0.3162277660168379, 0.4472135954999579, -0.3162277660168379, 0.3651483716701107, -0.3162277660168379, 0.4472135954999579, -0.3162277660168379, 0.18257418583505536]}
    - {mu0: 0, rank: 3, ndensity: 1, num_ms_combs: 9, mus: [1, 2, 3], ns: [1, 1, 1], ls: [1, 2, 1], ms_combs: [-1, 0, 1, -1, 1, 0, -1, 2, -1, 0, -1, 1, 0, 0, 0, 0, 1, -1, 1, -2, 1, 1, -1, 0, 1, 0, -1], ctildes: [0.18257418583505536, -0.3162277660168379, 0.4472135954999579, -0.3162277660168379, 0.3651483716701107, -0.3162277660168379, 0.4472135954999579, -0.3162277660168379, 0.18257418583505536]}
    - {mu0: 0, rank: 3, ndensity: 1, num_ms_combs: 9, mus: [2, 2, 3], ns: [1, 1, 1], ls: [1, 2, 1], ms_combs: [-1, 0, 1, -1, 1, 0, -1, 2, -1, 0, -1, 1, 0, 0, 0, 0, 1, -1, 1, -2, 1, 1, -1, 0, 1, 0, -1], ctildes: [0.18257418583505536, -0.3162277660168379, 0.4472135954999579, -0.3162277660168379, 0.3651483716701107, -0.3162277660168379, 0.4472135954999579, -0.3162277660168379, 0.18257418583505536]}
    - {mu0: 0, rank: 3, ndensity: 1, num_ms_combs: 9, mus: [0, 1, 1], ns: [1, 1, 1], ls: [2, 1, 1], ms_combs: [-2, 1, 1, -1, 0, 1, -1, 1, 0, 0, -1, 1, 0, 0, 0, 0, 1, -1, 1, -1, 0, 1, 0, -1, 2, -1, -1], ctildes: [0.4472135954999579, -0.3162277660168379, -0.3162277660168379, 0.18257418583505536, 0.3651483716701107, 0.18257418583505536, -0.3162277660168379, -0.3162277660168379, 0.4472135954999579]}
    - {mu0: 0, rank: 3, ndensity: 1, num_ms_combs: 9, mus: [0, 1, 2], ns: [1, 1, 1], ls: [2, 1, 1], ms_combs: [-2, 1, 1, -1, 0, 1, -1, 1, 0, 0, -1, 1, 0, 0, 0, 0, 1, -1, 1, -1, 0, 1, 0, -1, 2, -1, -1], ctildes: [0.4472135954999579, -0.3162277660168379, -0.3162277660168379, 0.18257418583505536, 0.3651483716701107, 0.18257418583505536, -0.3162277660168379, -0.3162277660168379, 0.4472135954999579]}
    - {mu0: 0, rank: 3, ndensity: 1, num_ms_combs: 9, mus: [0, 1, 3], ns: [1, 1, 1], ls: [2, 1, 1], ms_combs: [-2, 1, 1, -1, 0, 1, -1, 1, 0, 0, -1, 1, 0, 0, 0, 0, 1, -1, 1, -1, 0, 1, 0, -1, 2, -1, -1], ctildes: [0.4472135954999579, -0.3162277660168379, -0.3162277660168379, 0.18257418583505536, 0.3651483716701107, 0.18257418583505536, -0.3162277660168379, -0.3162277660168379, 0.4472135954999579]}
    - {mu0: 0, rank: 3, ndensity: 1, num_ms_combs: 9, mus: [0, 2, 2], ns: [1, 1, 1], ls: [2, 1, 1], ms_combs: [-2, 1, 1, -1, 0, 1, -1, 1, 0, 0, -1, 1, 0, 0, 0, 0, 1, -1, 1, -1, 0, 1, 0, -1, 2, -1, -1], ctildes: [0.4472135954999579, -0.3162277660168379, -0.3162277660168379, 0.18257418583505536, 0.3651483716701107, 0.18257418583505536, -0.3162277660168379, -0.3162277660168379, 0.4472135954999579]}
    - {mu0: 0, rank: 3, ndensity: 1, num_ms_combs: 9, mus: [0, 2, 3], ns: [1, 1, 1], ls: [2, 1, 1], ms_combs: [-2, 1, 1, -1, 0, 1, -1, 1, 0, 0, -1, 1, 0, 0, 0, 0, 1, -1, 1, -1, 0, 1, 0, -1, 2, -1, -1], ctildes: [0.4472135954999579, -0.3162277660168379, -0.3162277660168379, 0.18257418583505536, 0.3651483716701107, 0.18257418583505536, -0.3162277660168379, -0.3162277660168379, 0.4472135954999579]}
    - {mu0: 0, rank: 3, ndensity: 1, num_ms_combs: 9, mus: [0, 3, 3], ns: [1, 1, 1], ls: [2, 1, 1], ms_combs: [-2, 1, 1, -1, 0, 1, -1, 1, 0, 0, -1, 1, 0, 0, 0, 0, 1, -1, 1, -1, 0, 1, 0, -1, 2, -1, -1], ctildes: [0.4472135954999579, -0.3162277660168379, -0.3162277660168379, 0.18257418583505536, 0.3651483716701107, 0.18257418583505536, -0.3162277660168379, -0.3162277660168379, 0.4472135954999579]}
    - {mu0: 0, rank: 3, ndensity: 1, num_ms_combs: 9, mus: [1, 2, 2], ns: [1, 1, 1], ls: [2, 1, 1], ms_combs: [-2, 1, 1, -1, 0, 1, -1, 1, 0, 0, -1, 1, 0, 0, 0, 0, 1, -1, 1, -1, 0, 1, 0, -1, 2, -1, -1], ctildes: [0.4472135954999579, -0.3162277660168379, -0.3162277660168379, 0.18257418583505536, 0.3651483716701107, 0.18257418583505536, -0.3162277660168379, -0.3162277660168379, 0.4472135954999579]}
    - {mu0: 0, rank: 3, ndensity: 1, num_ms_combs: 9, mus: [1, 2, 3], ns: [1, 1, 1], ls: [2, 1, 1], ms_combs: [-2, 1, 1, -1, 0, 1, -1, 1, 0, 0, -1, 1, 0, 0, 0, 0, 1, -1, 1, -1, 0, 1, 0, -1, 2, -1, -1], ctildes: [0.4472135954999579, -0.3162277660168379, -0.3162277660168379, 0.18257418583505536, 0.3651483716701107, 0.18257418583505536, -0.3162277660168379, -0.3162277660168379, 0.4472135954999579]}
    - {mu0: 0, rank: 3, ndensity: 1, num_ms_combs: 9, mus: [1, 3, 3], ns: [1, 1, 1], ls: [2, 1, 1], ms_combs: [-2, 1, 1, -1, 0, 1, -1, 1, 0, 0, -1, 1, 0, 0, 0, 0, 1, -1, 1, -1, 0, 1, 0, -1, 2, -1, -1], ctildes: [0.4472135954999579, -0.3162277660168379, -0.3162277660168379, 0.18257418583505536, 0.3651483716701107, 0.18257418583505536, -0.3162277660168379, -0.3162277660168379, 0.4472135954999579]}
    - {mu0: 0, rank: 3, ndensity: 1, num_ms_combs: 9, mus: [2, 3, 3], ns: [1, 1, 1], ls: [2, 1, 1], ms_combs: [-2, 1, 1, -1, 0, 1, -1, 1, 0, 0, -1, 1, 0, 0, 0, 0, 1, -1, 1, -1, 0, 1, 0, -1, 2, -1, -1], ctildes: [0.4472135954999579, -0.3162277660168379, -0.3162277660168379, 0.18257418583505536, 0.3651483716701107, 0.18257418583505536, -0.3162277660168379, -0.3162277660168379, 0.4472135954999579]}
    - {mu0: 0, rank: 3, ndensity: 1, num_ms_combs: 19, mus: [0, 0, 0], ns: [1, 1, 1], ls: [2, 2, 2], ms_combs: [-2, 0, 2, -2, 1, 1, -2, 2, 0, -1, -1, 2, -1, 0, 1, -1, 1, 0, -1, 2, -1, 0, -2, 2, 0, -1, 1, 0, 0, 0, 0, 1, -1, 0, 2, -2, 1, -2, 1, 1, -1, 0, 1, 0, -1, 1, 1, -2, 2, -2, 0, 2, -1, -1, 2, 0, -2], ctildes: [0.23904572186687872, -0.29277002188455997, 0.23904572186687872, -0.29277002188455997, 0.11952286093343936, 0.11952286093343936, -0.29277002188455997, 0.23904572186687872, 0.11952286093343936, -0.23904572186687872, 0.11952286093343936, 0.23904572186687872, -0.29277002188455997, 0.11952286093343936, 0.11952286093343936, -0.29277002188455997, 0.23904572186687872, -0.29277002188455997, 0.23904572186687872]}
    - {mu0: 0, rank: 3, ndensity: 1, num_ms_combs: 19, mus: [0, 0, 1], ns: [1, 1, 1], ls: [2, 2, 2], ms_combs: [-2, 0, 2, -2, 1, 1, -2, 2, 0, -1, -1, 2, -1, 0, 1, -1, 1, 0, -1, 2, -1, 0, -2, 2, 0, -1, 1, 0, 0, 0, 0, 1, -1, 0, 2, -2, 1, -2, 1, 1, -1, 0, 1, 0, -1, 1, 1, -2, 2, -2, 0, 2, -1, -1, 2, 0, -2], ctildes: [0.23904572186687872, -0.29277002188455997, 0.23904572186687872, -0.29277002188455997, 0.11952286093343936, 0.11952286093343936, -0.29277002188455997, 0.23904572186687872, 0.11952286093343936, -0.23904572186687872, 0.11952286093343936, 0.23904572186687872, -0.29277002188455997, 0.11952286093343936, 0.11952286093343936, -0.29277002188455997, 0.23904572186687872, -0.29277002188455997, 0.23904572186687872]}
    - {mu0: 0, rank: 3, ndensity: 1, num_ms_combs: 19, mus: [0, 0, 2], ns: [1, 1, 1], ls: [2, 2, 2], ms_combs: [-2, 0, 2, -2, 1, 1, -2, 2, 0, -1, -1, 2, -1, 0, 1, -1, 1, 0, -1, 2, -1, 0, -2, 2, 0, -1, 1, 0, 0, 0, 0, 1, -1, 0, 2, -2, 1, -2, 1, 1, -1, 0, 1, 0, -1, 1, 1, -2, 2, -2, 0, 2, -1, -1, 2, 0, -2], ctildes: [0.23904572186687872, -0.29277002188455997, 0.23904572186687872, -0.29277002188455997, 0.11952286093343936, 0.11952286093343936, -0.29277002188455997, 0.23904572186687872, 0.11952286093343936, -0.23904572186687872, 0.11952286093343936, 0.23904572186687872, -0.29277002188455997, 0.11952286093343936, 0.11952286093343936, -0.29277002188455997, 0.23904572186687872, -0.29277002188455997, 0.23904572186687872]}
    - {mu0: 0, rank: 3, ndensity: 1, num_ms_combs: 19, mus: [0, 0, 3], ns: [1, 1, 1], ls: [2, 2, 2], ms_combs: [-2, 0, 2, -2, 1, 1, -2, 2, 0, -1, -1, 2, -1, 0, 1, -1, 1, 0, -1, 2, -1, 0, -2, 2, 0, -1, 1, 0, 0, 0, 0, 1, -1, 0, 2, -2, 1, -2, 1, 1, -1, 0, 1, 0, -1, 1, 1, -2, 2, -2, 0, 2, -1, -1, 2, 0, -2], ctildes: [0.23904572186687872, -0.29277002188455997, 0.23904572186687872, -0.29277002188455997, 0.11952286093343936, 0.11952286093343936, -0.29277002188455997, 0.23904572186687872, 0.11952286093343936, -0.23904572186687872, 0.11952286093343936, 0.23904572186687872, -0.29277002188455997, 0.11952286093343936, 0.11952286093343936, -0.29277002188455997, 0.23904572186687872, -0.29277002188455997, 0.23904572186687872]}
    - {mu0: 0, rank: 3, ndensity: 1, num_ms_combs: 19, mus: [0, 1, 1], ns: [1, 1, 1], ls: [2, 2, 2], ms_combs: [-2, 0, 2, -2, 1, 1, -2, 2, 0, -1, -1, 2, -1, 0, 1, -1, 1, 0, -1, 2, -1, 0, -2, 2, 0, -1, 1, 0, 0, 0, 0, 1, -1, 0, 2, -2, 1, -2, 1, 1, -1, 0, 1, 0, -1, 1, 1, -2, 2, -2, 0, 2, -1, -1, 2, 0, -2], ctildes: [0.23904572186687872, -0.29277002188455997, 0.23904572186687872, -0.29277002188455997, 0.11952286093343936, 0.11952286093343936, -0.29277002188455997, 0.23904572186687872, 0.11952286093343936, -0.23904572186687872, 0.11952286093343936, 0.23904572186687872, -0.29277002188455997, 0.11952286093343936, 0.11952286093343936, -0.29277002188455997, 0.23904572186687872, -0.29277002188455997, 0.23904572186687872]}
    - {mu0: 0, rank: 3, ndensity: 1, num_ms_combs: 19, mus: [0, 1, 2], ns: [1, 1, 1], ls: [2, 2, 2], ms_combs: [-2, 0, 2, -2, 1, 1, -2, 2, 0, -1, -1, 2, -1, 0, 1, -1, 1, 0, -1, 2, -1, 0, -2, 2, 0, -1, 1, 0, 0, 0, 0, 1, -1, 0, 2, -2, 1, -2, 1, 1, -1, 0, 1, 0, -1, 1, 1, -2, 2, -2, 0, 2, -1, -1, 2, 0, -2], ctildes: [0.23904572186687872, -0.29277002188455997, 0.23904572186687872, -0.29277002188455997, 0.11952286093343936, 0.11952286093343936, -0.29277002188455997, 0.23904572186687872, 0.11952286093343936, -0.23904572186687872, 0.11952286093343936, 0.23904572186687872, -0.29277002188455997, 0.11952286093343936, 0.11952286093343936, -0.29277002188455997, 0.23904572186687872, -0.29277002188455997, 0.23904572186687872]}
    - {mu0: 0, rank: 3, ndensity: 1, num_ms_combs: 19, mus: [0, 1, 3], ns: [1, 1, 1], ls: [2, 2, 2], ms_combs: [-2, 0, 2, -2, 1, 1, -2, 2, 0, -1, -1, 2, -1, 0, 1, -1, 1, 0, -1, 2, -1, 0, -2, 2, 0, -1, 1, 0, 0, 0, 0, 1, -1, 0, 2, -2, 1, -2, 1, 1, -1, 0, 1, 0, -1, 1, 1, -2, 2, -2, 0, 2, -1, -1, 2, 0, -2], ctildes: [0.23904572186687872, -0.29277002188455997, 0.23904572186687872, -0.29277002188455997, 0.11952286093343936, 0.11952286093343936, -0.29277002188455997, 0.23904572186687872, 0.11952286093343936, -0.23904572186687872, 0.11952286093343936, 0.23904572186687872, -0.29277002188455997, 0.11952286093343936, 0.11952286093343936, -0.29277002188455997, 0.23904572186687872, -0.29277002188455997, 0.23904572186687872]}
    - {mu0: 0, rank: 3, ndensity: 1, num_ms_combs: 19, mus: [0, 2, 2], ns: [1, 1, 1], ls: [2, 2, 2], ms_combs: [-2, 0, 2, -2, 1, 1, -2, 2, 0, -1, -1, 2, -1, 0, 1, -1, 1, 0, -1, 2, -1, 0, -2, 2, 0, -1, 1, 0, 0, 0, 0, 1, -1, 0, 2, -2, 1, -2, 1, 1, -1, 0, 1, 0, -1, 1, 1, -2, 2, -2, 0, 2, -1, -1, 2, 0, -2], ctildes: [0.23904572186687872, -0.29277002188455997, 0.23904572186687872, -0.29277002188455997, 0.11952286093343936, 0.11952286093343936, -0.29277002188455997, 0.23904572186687872, 0.11952286093343936, -0.23904572186687872, 0.11952286093343936, 0.23904572186687872, -0.29277002188455997, 0.11952286093343936, 0.11952286093343936, -0.29277002188455997, 0.23904572186687872, -0.29277002188455997, 0.23904572186687872]}
    - {mu0: 0, rank: 3, ndensity: 1, num_ms_combs: 19, mus: [0, 2, 3], ns: [1, 1, 1], ls: [2, 2, 2], ms_combs: [-2, 0, 2, -2, 1, 1, -2, 2, 0, -1, -1, 2, -1, 0, 1, -1, 1, 0, -1, 2, -1, 0, -2, 2, 0, -1, 1, 0, 0, 0, 0, 1, -1, 0, 2, -2, 1, -2, 1, 1, -1, 0, 1, 0, -1, 1, 1, -2, 2, -2, 0, 2, -1, -1, 2, 0, -2], ctildes: [0.23904572186687872, -0.29277002188455997, 0.23904572186687872, -0.29277002188455997, 0.11952286093343936, 0.11952286093343936, -0.29277002188455997, 0.23904572186687872, 0.11952286093343936, -0.23904572186687872, 0.11952286093343936, 0.23904572186687872, -0.29277002188455997, 0.11952286093343936, 0.11952286093343936, -0.29277002188455997, 0.23904572186687872, -0.29277002188455997, 0.23904572186687872]}
    - {mu0: 0, rank: 3, ndensity: 1, num_ms_combs: 19, mus: [0, 3, 3], ns: [1, 1, 1], ls: [2, 2, 2], ms_combs: [-2, 0, 2, -2, 1, 1, -2, 2, 0, -1, -1, 2, -1, 0, 1, -1, 1, 0, -1, 2, -1, 0, -2, 2, 0, -1, 1, 0, 0, 0, 0, 1, -1, 0, 2, -2, 1, -2, 1, 1, -1, 0, 1, 0, -1, 1, 1, -2, 2, -2, 0, 2, -1, -1, 2, 0, -2], ctildes: [0.23904572186687872, -0.29277002188455997, 0.23904572186687872, -0.29277002188455997, 0.11952286093343936, 0.11952286093343936, -0.29277002188455997, 0.23904572186687872, 0.11952286093343936, -0.23904572186687872, 0.11952286093343936, 0.23904572186687872, -0.29277002188455997, 0.11952286093343936, 0.11952286093343936, -0.29277002188455997, 0.23904572186687872, -0.29277002188455997, 0.23904572186687872]}
    - {mu0: 0, rank: 3, ndensity: 1, num_ms_combs: 19, mus: [1, 1, 1], ns: [1, 1, 1], ls: [2, 2, 2], ms_combs: [-2, 0, 2, -2, 1, 1, -2, 2, 0, -1, -1, 2, -1, 0, 1, -1, 1, 0, -1, 2, -1, 0, -2, 2, 0, -1, 1, 0, 0, 0, 0, 1, -1, 0, 2, -2, 1, -2, 1, 1, -1, 0, 1, 0, -1, 1, 1, -2, 2, -2, 0, 2, -1, -1, 2, 0, -2], ctildes: [0.23904572186687872, -0.29277002188455997, 0.23904572186687872, -0.29277002188455997, 0.11952286093343936, 0.11952286093343936, -0.29277002188455997, 0.23904572186687872, 0.11952286093343936, -0.23904572186687872, 0.11952286093343936, 0.23904572186687872, -0.29277002188455997, 0.11952286093343936, 0.11952286093343936, -0.29277002188455997, 0.23904572186687872, -0.29277002188455997, 0.23904572186687872]}
    - {mu0: 0, rank: 3, ndensity: 1, num_ms_combs: 19, mus: [1, 1, 2], ns: [1, 1, 1], ls: [2, 2, 2], ms_combs: [-2, 0, 2, -2, 1, 1, -2, 2, 0, -1, -1, 2, -1, 0, 1, -1, 1, 0, -1, 2, -1, 0, -2, 2, 0, -1, 1, 0, 0, 0, 0, 1, -1, 0, 2, -2, 1, -2, 1, 1, -1, 0, 1, 0, -1, 1, 1, -2, 2, -2, 0, 2, -1, -1, 2, 0, -2], ctildes: [0.23904572186687872, -0.29277002188455997, 0.23904572186687872, -0.29277002188455997, 0.11952286093343936, 0.11952286093343936, -0.29277002188455997, 0.23904572186687872, 0.11952286093343936, -0.23904572186687872, 0.11952286093343936, 0.23904572186687872, -0.29277002188455997, 0.11952286093343936, 0.11952286093343936, -0.29277002188455997, 0.23904572186687872, -0.29277002188455997, 0.23904572186687872]}
    - {mu0: 0, rank: 3, ndensity: 1, num_ms_combs: 19, mus: [1, 1, 3], ns: [1, 1, 1], ls: [2, 2, 2], ms_combs: [-2, 0, 2, -2, 1, 1, -2, 2, 0, -1, -1, 2, -1, 0, 1, -1, 1, 0, -1, 2, -1, 0, -2, 2, 0, -1, 1, 0, 0, 0, 0, 1, -1, 0, 2, -2, 1, -2, 1, 1, -1, 0, 1, 0, -1, 1, 1, -2, 2, -2, 0, 2, -1, -1, 2, 0, -2], ctildes: [0.23904572186687872, -0.29277002188455997, 0.23904572186687872, -0.29277002188455997, 0.11952286093343936, 0.11952286093343936, -0.29277002188455997, 0.23904572186687872, 0.11952286093343936, -0.23904572186687872, 0.11952286093343936, 0.23904572186687872, -0.29277002188455997, 0.11952286093343936, 0.11952286093343936, -0.29277002188455997, 0.23904572186687872, -0.29277002188455997, 0.23904572186687872]}
    - {mu0: 0, rank: 3, ndensity: 1, num_ms_combs: 19, mus: [1, 2, 2], ns: [1, 1, 1], ls: [2, 2, 2], ms_combs: [-2, 0, 2, -2, 1, 1, -2, 2, 0, -1, -1, 2, -1, 0, 1, -1, 1, 0, -1, 2, -1, 0, -2, 2, 0, -1, 1, 0, 0, 0, 0, 1, -1, 0, 2, -2, 1, -2, 1, 1, -1, 0, 1, 0, -1, 1, 1, -2, 2, -2, 0, 2, -1, -1, 2, 0, -2], ctildes: [0.23904572186687872, -0.29277002188455997, 0.23904572186687872, -0.29277002188455997, 0.11952286093343936, 0.11952286093343936, -0.29277002188455997, 0.23904572186687872, 0.11952286093343936, -0.23904572186687872, 0.11952286093343936, 0.23904572186687872, -0.29277002188455997, 0.11952286093343936, 0.11952286093343936, -0.29277002188455997, 0.23904572186687872, -0.29277002188455997, 0.23904572186687872]}
    - {mu0: 0, rank: 3, ndensity: 1, num_ms_combs: 19, mus: [1, 2, 3], ns: [1, 1, 1], ls: [2, 2, 2], ms_combs: [-2, 0, 2, -2, 1, 1, -2, 2, 0, -1, -1, 2, -1, 0, 1, -1, 1, 0, -1, 2, -1, 0, -2, 2, 0, -1, 1, 0, 0, 0, 0, 1, -1, 0, 2, -2, 1, -2, 1, 1, -1, 0, 1, 0, -1, 1, 1, -2, 2, -2, 0, 2, -1, -1, 2, 0, -2], ctildes: [0.23904572186687872, -0.29277002188455997, 0.23904572186687872, -0.29277002188455997, 0.11952286093343936, 0.11952286093343936, -0.29277002188455997, 0.23904572186687872, 0.11952286093343936, -0.23904572186687872, 0.11952286093343936, 0.23904572186687872, -0.29277002188455997, 0.11952286093343936, 0.11952286093343936, -0.29277002188455997, 0.23904572186687872, -0.29277002188455997, 0.23904572186687872]}
    - {mu0: 0, rank: 3, ndensity: 1, num_ms_combs: 19, mus: [1, 3, 3], ns: [1, 1, 1], ls: [2, 2, 2], ms_combs: [-2, 0, 2, -2, 1, 1, -2, 2, 0, -1, -1, 2, -1, 0, 1, -1, 1, 0, -1, 2, -1, 0, -2, 2, 0, -1, 1, 0, 0, 0, 0, 1, -1, 0, 2, -2, 1, -2, 1, 1, -1, 0, 1, 0, -1, 1, 1, -2, 2, -2, 0, 2, -1, -1, 2, 0, -2], ctildes: [0.23904572186687872, -0.29277002188455997, 0.23904572186687872, -0.29277002188455997, 0.11952286093343936, 0.11952286093343936, -0.29277002188455997, 0.23904572186687872, 0.11952286093343936, -0.23904572186687872, 0.11952286093343936, 0.23904572186687872, -0.29277002188455997, 0.11952286093343936, 0.11952286093343936, -0.29277002188455997, 0.23904572186687872, -0.29277002188455997, 0.23904572186687872]}
    - {mu0: 0, rank: 3, ndensity: 1, num_ms_combs: 19, mus: [2, 2, 2], ns: [1, 1, 1], ls: [2, 2, 2], ms_combs: [-2, 0, 2, -2, 1, 1, -2, 2, 0, -1, -1, 2, -1, 0, 1, -1, 1, 0, -1, 2, -1, 0, -2, 2, 0, -1, 1, 0, 0, 0, 0, 1, -1, 0, 2, -2, 1, -2, 1, 1, -1, 0, 1, 0, -1, 1, 1, -2, 2, -2, 0, 2, -1, -1, 2, 0, -2], ctildes: [0.23904572186687872, -0.29277002188455997, 0.23904572186687872, -0.29277002188455997, 0.11952286093343936, 0.11952286093343936, -0.29277002188455997, 0.23904572186687872, 0.11952286093343936, -0.23904572186687872, 0.11952286093343936, 0.23904572186687872, -0.29277002188455997, 0.11952286093343936, 0.11952286093343936, -0.29277002188455997, 0.23904572186687872, -0.29277002188455997, 0.23904572186687872]}
    - {mu0: 0, rank: 3, ndensity: 1, num_ms_combs: 19, mus: [2, 2, 3], ns: [1, 1, 1], ls: [2, 2, 2], ms_combs: [-2, 0, 2, -2, 1, 1, -2, 2, 0, -1, -1, 2, -1, 0, 1, -1, 1, 0, -1, 2, -1, 0, -2, 2, 0, -1, 1, 0, 0, 0, 0, 1, -1, 0, 2, -2, 1, -2, 1, 1, -1, 0, 1, 0, -1, 1, 1, -2, 2, -2, 0, 2, -1, -1, 2, 0, -2], ctildes: [0.23904572186687872, -0.29277002188455997, 0.23904572186687872, -0.29277002188455997, 0.11952286093343936, 0.11952286093343936, -0.29277002188455997, 0.23904572186687872, 0.11952286093343936, -0.23904572186687872, 0.11952286093343936, 0.23904572186687872, -0.29277002188455997, 0.11952286093343936, 0.11952286093343936, -0.29277002188455997, 0.23904572186687872, -0.29277002188455997, 0.23904572186687872]}
    - {mu0: 0, rank: 3, ndensity: 1, num_ms_combs: 19, mus: [2, 3, 3], ns: [1, 1, 1], ls: [2, 2, 2], ms_combs: [-2, 0, 2, -2, 1, 1, -2, 2, 0, -1, -1, 2, -1, 0, 1, -1, 1, 0, -1, 2, -1, 0, -2, 2, 0, -1, 1, 0, 0, 0, 0, 1, -1, 0, 2, -2, 1, -2, 1, 1, -1, 0, 1, 0, -1, 1, 1, -2, 2, -2, 0, 2, -1, -1, 2, 0, -2], ctildes: [0.23904572186687872, -0.29277002188455997, 0.23904572186687872, -0.29277002188455997, 0.11952286093343936, 0.11952286093343936, -0.29277002188455997, 0.23904572186687872, 0.11952286093343936, -0.23904572186687872, 0.11952286093343936, 0.23904572186687872, -0.29277002188455997, 0.11952286093343936, 0.11952286093343936, -0.29277002188455997, 0.23904572186687872, -0.29277002188455997, 0.23904572186687872]}
    - {mu0: 0, rank: 3, ndensity: 1, num_ms_combs: 19, mus: [3, 3, 3], ns: [1, 1, 1], ls: [2, 2, 2], ms_combs: [-2, 0, 2, -2, 1, 1, -2, 2, 0, -1, -1, 2, -1, 0, 1, -1, 1, 0, -1, 2, -1, 0, -2, 2, 0, -1, 1, 0, 0, 0, 0, 1, -1, 0, 2, -2, 1, -2, 1, 1, -1, 0, 1, 0, -1, 1, 1, -2, 2, -2, 0, 2, -1, -1, 2, 0, -2], ctildes: [0.23904572186687872, -0.29277002188455997, 0.23904572186687872, -0.29277002188455997, 0.11952286093343936, 0.11952286093343936, -0.29277002188455997, 0.23904572186687872, 0.11952286093343936, -0.23904572186687872, 0.11952286093343936, 0.23904572186687872, -0.29277002188455997, 0.11952286093343936, 0.11952286093343936, -0.29277002188455997, 0.23904572186687872, -0.29277002188455997, 0.23904572186687872]}
  1:
    - {mu0: 1, rank: 1, ndensity: 1, num_ms_combs: 1, mus: [0], ns: [1], ls: [0], ms_combs: [0], ctildes: [1.0]}
    - {mu0: 1, rank: 1, ndensity: 1, num_ms_combs: 1, mus: [1], ns: [1], ls: [0], ms_combs: [0], ctildes: [1.0]}
    - {mu0: 1, rank: 1, ndensity: 1, num_ms_combs: 1, mus: [2], ns: [1], ls: [0], ms_combs: [0], ctildes: [1.0]}
    - {mu0: 1, rank: 1, ndensity: 1, num_ms_combs: 1, mus: [3], ns: [1], ls: [0], ms_combs: [0], ctildes: [1.0]}
    - {mu0: 1, rank: 1, ndensity: 1, num_ms_combs: 1, mus: [0], ns: [2], ls: [0], ms_combs: [0], ctildes: [1.0]}
    - {mu0: 1, rank: 1, ndensity: 1, num_ms_combs: 1, mus: [1], ns: [2], ls: [0], ms_combs: [0], ctildes: [1.0]}
    - {mu0: 1, rank: 1, ndensity: 1, num_ms_combs: 1, mus: [2], ns: [2], ls: [0], ms_combs: [0], ctildes: [1.0]}
    - {mu0: 1, rank: 1, ndensity: 1, num_ms_combs: 1, mus: [3], ns: [2], ls: [0], ms_combs: [0], ctildes: [1.0]}
    - {mu0: 1, rank: 1, ndensity: 1, num_ms_combs: 1, mus: [0], ns: [3], ls: [0], ms_combs: [0], ctildes: [1.0]}
    - {mu0: 1, rank: 1, ndensity: 1, num_ms_combs: 1, mus: [1], ns: [3], ls: [0], ms_combs: [0], ctildes: [1.0]}
    - {mu0: 1, rank: 1, ndensity: 1, num_ms_combs: 1, mus: [2], ns: [3], ls: [0], ms_combs: [0], ctildes: [1.0]}
    - {mu0: 1, rank: 1, ndensity: 1, num_ms_combs: 1, mus: [3], ns: [3], ls: [0], ms_combs: [0], ctildes: [1.0]}
    - {mu0: 1, rank: 2, ndensity: 1, num_ms_combs: 1, mus: [0, 0], ns: [1, 1], ls: [0, 0], ms_combs: [0, 0], ctildes: [1.0]}
    - {mu0: 1, rank: 2, ndensity: 1, num_ms_combs: 1, mus: [0, 1], ns: [1, 1], ls: [0, 0], ms_combs: [0, 0], ctildes: [1.0]}
    - {mu0: 1, rank: 2, ndensity: 1, num_ms_combs: 1, mus: [0, 2], ns: [1, 1], ls: [0, 0], ms_combs: [0, 0], ctildes: [1.0]}
    - {mu0: 1, rank: 2, ndensity: 1, num_ms_combs: 1, mus: [0, 3], ns: [1, 1], ls: [0, 0], ms_combs: [0, 0], ctildes: [1.0]}
    - {mu0: 1, rank: 2, ndensity: 1, num_ms_combs: 1, mus: [1, 1], ns: [1, 1], ls: [0, 0], ms_combs: [0, 0], ctildes: [1.0]}
    - {mu0: 1, rank: 2, ndensity: 1, num_ms_combs: 1, mus: [1, 2], ns: [1, 1], ls: [0, 0], ms_combs: [0, 0], ctildes: [1.0]}
    - {mu0: 1, rank: 2, ndensity: 1, num_ms_combs: 1, mus: [1, 3], ns: [1, 1], ls: [0, 0], ms_combs: [0, 0], ctildes: [1.0]}
    - {mu0: 1, rank: 2, ndensity: 1, num_ms_combs: 1, mus: [2, 2], ns: [1, 1], ls: [0, 0], ms_combs: [0, 0], ctildes: [1.0]}
    - {mu0: 1, rank: 2, ndensity: 1, num_ms_combs: 1, mus: [2, 3], ns: [1, 1], ls: [0, 0], ms_combs: [0, 0], ctildes: [1.0]}
    - {mu0: 1, rank: 2, ndensity: 1, num_ms_combs: 1, mus: [3, 3], ns: [1, 1], ls: [0, 0], ms_combs: [0, 0], ctildes: [1.0]}
    - {mu0: 1, rank: 2, ndensity: 1, num_ms_combs: 1, mus: [0, 0], ns: [1, 2], ls: [0, 0], ms_combs: [0, 0], ctildes: [1.0]}
    - {mu0: 1, rank: 2, ndensity: 1, num_ms_combs: 1, mus: [0, 1], ns: [1, 2], ls: [0, 0], ms_combs: [0, 0], ctildes: [1.0]}
    - {mu0: 1, rank: 2, ndensity: 1, num_ms_combs: 1, mus: [0, 2], ns: [1, 2], ls: [0, 0], ms_combs: [0, 0], ctildes: [1.0]}
    - {mu0: 1, rank: 2, ndensity: 1, num_ms_combs: 1, mus: [0, 3], ns: [1, 2], ls: [0, 0], ms_combs: [0, 0], ctildes: [1.0]}
    - {mu0: 1, rank: 2, ndensity: 1, num_ms_combs: 1, mus: [1, 1], ns: [1, 2], ls: [0, 0], ms_combs: [0, 0], ctildes: [1.0]}
    - {mu0: 1, rank: 2, ndensity: 1, num_ms_combs: 1, mus: [1, 2], ns: [1, 2], ls: [0, 0], ms_combs: [0, 0], ctildes: [1.0]}
    - {mu0: 1, rank: 2, ndensity: 1, num_ms_combs: 1, mus: [1, 3], ns: [1, 2], ls: [0, 0], ms_combs: [0, 0], ctildes: [1.0]}
    - {mu0: 1, rank: 2, ndensity: 1, num_ms_combs: 1, mus: [2, 2], ns: [1, 2], ls: [0, 0], ms_combs: [0, 0], ctildes: [1.0]}
    - {mu0: 1, rank: 2, ndensity: 1, num_ms_combs: 1, mus: [2, 3], ns: [1, 2], ls: [0, 0], ms_combs: [0, 0], ctildes: [1.0]}
    - {mu0: 1, rank: 2, ndensity: 1, num_ms_combs: 1, mus: [3, 3], ns: [1, 2], ls: [0, 0], ms_combs: [0, 0], ctildes: [1.0]}
    - {mu0: 1, rank: 2, ndensity: 1, num_ms_combs: 1, mus: [0, 1], ns: [2, 1], ls: [0, 0], ms_combs: [0, 0], ctildes: [1.0]}
    - {mu0: 1, rank: 2, ndensity: 1, num_ms_combs: 1, mus: [0, 2], ns: [2, 1], ls: [0, 0], ms_combs: [0, 0], ctildes: [1.0]}
    - {mu0: 1, rank: 2, ndensity: 1, num_ms_combs: 1, mus: [0, 3], ns: [2, 1], ls: [0, 0], ms_combs: [0, 0], ctildes: [1.0]}
    - {mu0: 1, rank: 2, ndensity: 1, num_ms_combs: 1, mus: [1, 2], ns: [2, 1], ls: [0, 0], ms_combs: [0, 0], ctildes: [1.0]}
    - {mu0: 1, rank: 2, ndensity: 1, num_ms_combs: 1, mus: [1, 3], ns: [2, 1], ls: [0, 0], ms_combs: [0, 0], ctildes: [1.0]}
    - {mu0: 1, rank: 2, ndensity: 1, num_ms_combs: 1, mus: [2, 3], ns: [2, 1], ls: [0, 0], ms_combs: [0, 0], ctildes: [1.0]}
    - {mu0: 1, rank: 2, ndensity: 1, num_ms_combs: 1, mus: [0, 0], ns: [2, 2], ls: [0, 0], ms_combs: [0, 0], ctildes: [1.0]}
    - {mu0: 1, rank: 2, ndensity: 1, num_ms_combs: 1, mus: [0, 1], ns: [2, 2], ls: [0, 0], ms_combs: [0, 0], ctildes: [1.0]}
    - {mu0: 1, rank: 2, ndensity: 1, num_ms_combs: 1, mus: [0, 2], ns: [2, 2], ls: [0, 0], ms_combs: [0, 0], ctildes: [1.0]}
    - {mu0: 1, rank: 2, ndensity: 1, num_ms_combs: 1, mus: [0, 3], ns: [2, 2], ls: [0, 0], ms_combs: [0, 0], ctildes: [1.0]}
    - {mu0: 1, rank: 2, ndensity: 1, num_ms_combs: 1, mus: [1, 1], ns: [2, 2], ls: [0, 0], ms_combs: [0, 0], ctildes: [1.0]}
    - {mu0: 1, rank: 2, ndensity: 1, num_ms_combs: 1, mus: [1, 2], ns: [2, 2], ls: [0, 0], ms_combs: [0, 0], ctildes: [1.0]}
    - {mu0: 1, rank: 2, ndensity: 1, num_ms_combs: 1, mus: [1, 3], ns: [2, 2], ls: [0, 0], ms_combs: [0, 0], ctildes: [1.0]}
    - {mu0: 1, rank: 2, ndensity: 1, num_ms_combs: 1, mus: [2, 2], ns: [2, 2], ls: [0, 0], ms_combs: [0, 0], ctildes: [1.0]}
    - {mu0: 1, rank: 2, ndensity: 1, num_ms_combs: 1, mus: [2, 3], ns: [2, 2], ls: [0, 0], ms_combs: [0, 0], ctildes: [1.0]}
    - {mu0: 1, rank: 2, ndensity: 1, num_ms_combs: 1, mus: [3, 3], ns: [2, 2], ls: [0, 0], ms_combs: [0, 0], ctildes: [1.0]}
    - {mu0: 1, rank: 2, ndensity: 1, num_ms_combs: 3, mus: [0, 0], ns: [1, 1], ls: [1, 1], ms_combs: [-1, 1, 0, 0, 1, -1], ctildes: [0.5773502691896257, -0.5773502691896257, 0.5773502691896257]}
    - {mu0: 1, rank: 2, ndensity: 1, num_ms_combs: 3, mus: [0, 1], ns: [1, 1], ls: [1, 1], ms_combs: [-1, 1, 0, 0, 1, -1], ctildes: [0.5773502691896257, -0.5773502691896257, 0.5773502691896257]}
    - {mu0: 1, rank: 2, ndensity: 1, num_ms_combs: 3, mus: [0, 2], ns: [1, 1], ls: [1, 1], ms_combs: [-1, 1, 0, 0, 1, -1], ctildes: [0.5773502691896257, -0.5773502691896257, 0.5773502691896257]}
    - {mu0: 1, rank: 2, ndensity: 1, num_ms_combs: 3, mus: [0, 3], ns: [1, 1], ls: [1, 1], ms_combs: [-1, 1, 0, 0, 1, -1], ctildes: [0.5773502691896257, -0.5773502691896257, 0.5773502691896257]}
    - {mu0: 1, rank: 2, ndensity: 1, num_ms_combs: 3, mus: [1, 1], ns: [1, 1], ls: [1, 1], ms_combs: [-1, 1, 0, 0, 1, -1], ctildes: [0.5773502691896257, -0.5773502691896257, 0.5773502691896257]}
    - {mu0: 1, rank: 2, ndensity: 1, num_ms_combs: 3, mus: [1, 2], ns: [1, 1], ls: [1, 1], ms_combs: [-1, 1, 0, 0, 1, -1], ctildes: [0.5773502691896257, -0.5773502691896257, 0.5773502691896257]}
    - {mu0: 1, rank: 2, ndensity: 1, num_ms_combs: 3, mus: [1, 3], ns: [1, 1], ls: [1, 1], ms_combs: [-1, 1, 0, 0, 1, -1], ctildes: [0.5773502691896257, -0.5773502691896257, 0.5773502691896257]}
    - {mu0: 1, rank: 2, ndensity: 1, num_ms_combs: 3, mus: [2, 2], ns: [1, 1], ls: [1, 1], ms_combs: [-1, 1, 0, 0, 1, -1], ctildes: [0.5773502691896257, -0.5773502691896257, 0.5773502691896257]}
    - {mu0: 1, rank: 2, ndensity: 1, num_ms_combs: 3, mus: [2, 3], ns: [1, 1], ls: [1, 1], ms_combs: [-1, 1, 0, 0, 1, -1], ctildes: [0.5773502691896257, -0.5773502691896257, 0.5773502691896257]}
    - {mu0: 1, rank: 2, ndensity: 1, num_ms_combs: 3, mus: [3, 3], ns: [1, 1], ls: [1, 1], ms_combs: [-1, 1, 0, 0, 1, -1], ctildes: [0.5773502691896257, -0.5773502691896257, 0.5773502691896257]}
    - {mu0: 1, rank: 2, ndensity: 1, num_ms_combs: 3, mus: [0, 0], ns: [1, 2], ls: [1, 1], ms_combs: [-1, 1, 0, 0, 1, -1], ctildes: [0.5773502691896257, -0.5773502691896257, 0.5773502691896257]}
    - {mu0: 1, rank: 2, ndensity: 1, num_ms_combs: 3, mus: [0, 1], ns: [1, 2], ls: [1, 1], ms_combs: [-1, 1, 0, 0, 1, -1], ctildes: [0.5773502691896257, -0.5773502691896257, 0.5773502691896257]}
    - {mu0: 1, rank: 2, ndensity: 1, num_ms_combs: 3, mus: [0, 2], ns: [1, 2], ls: [1, 1], ms_combs: [-1, 1, 0, 0, 1, -1], ctildes: [0.5773502691896257, -0.5773502691896257, 0.5773502691896257]}
    - {mu0: 1, rank: 2, ndensity: 1, num_ms_combs: 3, mus: [0, 3], ns: [1, 2], ls: [1, 1], ms_combs: [-1, 1, 0, 0, 1, -1], ctildes: [0.5773502691896257, -0.5773502691896257, 0.5773502691896257]}
    - {mu0: 1, rank: 2, ndensity: 1, num_ms_combs: 3, mus: [1, 1], ns: [1, 2], ls: [1, 1], ms_combs: [-1, 1, 0, 0, 1, -1], ctildes: [0.5773502691896257, -0.5773502691896257, 0.5773502691896257]}
    - {mu0: 1, rank: 2, ndensity: 1, num_ms_combs: 3, mus: [1, 2], ns: [1, 2], ls: [1, 1], ms_combs: [-1, 1, 0, 0, 1, -1], ctildes: [0.5773502691896257, -0.5773502691896257, 0.5773502691896257]}
    - {mu0: 1, rank: 2, ndensity: 1, num_ms_combs: 3, mus: [1, 3], ns: [1, 2], ls: [1, 1], ms_combs: [-1, 1, 0, 0, 1, -1], ctildes: [0.5773502691896257, -0.5773502691896257, 0.5773502691896257]}
    - {mu0: 1, rank: 2, ndensity: 1, num_ms_combs: 3, mus: [2, 2], ns: [1, 2], ls: [1, 1], ms_combs: [-1, 1, 0, 0, 1, -1], ctildes: [0.5773502691896257, -0.5773502691896257, 0.5773502691896257]}
    - {mu0: 1, rank: 2, ndensity: 1, num_ms_combs: 3, mus: [2, 3], ns: [1, 2], ls: [1, 1], ms_combs: [-1, 1, 0, 0, 1, -1], ctildes: [0.5773502691896257, -0.5773502691896257, 0.5773502691896257]}
    - {mu0: 1, rank: 2, ndensity: 1, num_ms_combs: 3, mus: [3, 3], ns: [1, 2], ls: [1, 1], ms_combs: [-1, 1, 0, 0, 1, -1], ctildes: [0.5773502691896257, -0.5773502691896257, 0.5773502691896257]}
    - {mu0: 1, rank: 2, ndensity: 1, num_ms_combs: 3, mus: [0, 1], ns: [2, 1], ls: [1, 1], ms_combs: [-1, 1, 0, 0, 1, -1], ctildes: [0.5773502691896257, -0.5773502691896257, 0.5773502691896257]}
    - {mu0: 1, rank: 2, ndensity: 1, num_ms_combs: 3, mus: [0, 2], ns: [2, 1], ls: [1, 1], ms_combs: [-1, 1, 0, 0, 1, -1], ctildes: [0.5773502691896257, -0.5773502691896257, 0.5773502691896257]}
    - {mu0: 1, rank: 2, ndensity: 1, num_ms_combs: 3, mus: [0, 3], ns: [2, 1], ls: [1, 1], ms_combs: [-1, 1, 0, 0, 1, -1], ctildes: [0.5773502691896257, -0.5773502691896257, 0.5773502691896257]}
    - {mu0: 1, rank: 2, ndensity: 1, num_ms_combs: 3, mus: [1, 2], ns: [2, 1], ls: [1, 1], ms_combs: [-1, 1, 0, 0, 1, -1], ctildes: [0.5773502691896257, -0.5773502691896257, 0.5773502691896257]}
    - {mu0: 1, rank: 2, ndensity: 1, num_ms_combs: 3, mus: [1, 3], ns: [2, 1], ls: [1, 1], ms_combs: [-1, 1, 0, 0, 1, -1], ctildes: [0.5773502691896257, -0.5773502691896257, 0.5773502691896257]}
    - {mu0: 1, rank: 2, ndensity: 1, num_ms_combs: 3, mus: [2, 3], ns: [2, 1], ls: [1, 1], ms_combs: [-1, 1, 0, 0, 1, -1], ctildes: [0.5773502691896257, -0.5773502691896257, 0.5773502691896257]}
    - {mu0: 1, rank: 2, ndensity: 1, num_ms_combs: 3, mus: [0, 0], ns: [2, 2], ls: [1, 1], ms_combs: [-1, 1, 0, 0, 1, -1], ctildes: [0.5773502691896257, -0.5773502691896257, 0.5773502691896257]}
    - {mu0: 1, rank: 2, ndensity: 1, num_ms_combs: 3, mus: [0, 1], ns: [2, 2], ls: [1, 1], ms_combs: [-1, 1, 0, 0, 1, -1], ctildes: [0.5773502691896257, -0.5773502691896257, 0.5773502691896257]}
    - {mu0: 1, rank: 2, ndensity: 1, num_ms_combs: 3, mus: [0, 2], ns: [2, 2], ls: [1, 1], ms_combs: [-1, 1, 0, 0, 1, -1], ctildes: [0.5773502691896257, -0.5773502691896257, 0.5773502691896257]}
    - {mu0: 1, rank: 2, ndensity: 1, num_ms_combs: 3, mus: [0, 3], ns: [2, 2], ls: [1, 1], ms_combs: [-1, 1, 0, 0, 1, -1], ctildes: [0.5773502691896257, -0.5773502691896257, 0.5773502691896257]}
    - {mu0: 1, rank: 2, ndensity: 1, num_ms_combs: 3, mus: [1, 1], ns: [2, 2], ls: [1, 1], ms_combs: [-1, 1, 0, 0, 1, -1], ctildes: [0.5773502691896257, -0.5773502691896257, 0.5773502691896257]}
    - {mu0: 1, rank: 2, ndensity: 1, num_ms_combs: 3, mus: [1, 2], ns: [2, 2], ls: [1, 1], ms_combs: [-1, 1, 0, 0, 1, -1], ctildes: [0.5773502691896257, -0.5773502691896257, 0.5773502691896257]}
    - {mu0: 1, rank: 2, ndensity: 1, num_ms_combs: 3, mus: [1, 3], ns: [2, 2], ls: [1, 1], ms_combs: [-1, 1, 0, 0, 1, -1], ctildes: [0.5773502691896257, -0.5773502691896257, 0.5773502691896257]}
    - {mu0: 1, rank: 2, ndensity: 1, num_ms_combs: 3, mus: [2, 2], ns: [2, 2], ls: [1, 1], ms_combs: [-1, 1, 0, 0, 1, -1], ctildes: [0.5773502691896257, -0.5773502691896257, 0.5773502691896257]}
    - {mu0: 1, rank: 2, ndensity: 1, num_ms_combs: 3, mus: [2, 3], ns: [2, 2], ls: [1, 1], ms_combs: [-1, 1, 0, 0, 1, -1], ctildes: [0.5773502691896257, -0.5773502691896257, 0.5773502691896257]}
    - {mu0: 1, rank: 2, ndensity: 1, num_ms_combs: 3, mus: [3, 3], ns: [2, 2], ls: [1, 1], ms_combs: [-1, 1, 0, 0, 1, -1], ctildes: [0.5773502691896257, -0.5773502691896257, 0.5773502691896257]}
    - {mu0: 1, rank: 2, ndensity: 1, num_ms_combs: 5, mus: [0, 0], ns: [1, 1], ls: [2, 2], ms_combs: [-2, 2, -1, 1, 0, 0, 1, -1, 2, -2], ctildes: [0.4472135954999579, -0.4472135954999579, 0.4472135954999579, -0.4472135954999579, 0.4472135954999579]}
    - {mu0: 1, rank: 2, ndensity: 1, num_ms_combs: 5, mus: [0, 1], ns: [1, 1], ls: [2, 2], ms_combs: [-2, 2, -1, 1, 0, 0, 1, -1, 2, -2], ctildes: [0.4472135954999579, -0.4472135954999579, 0.4472135954999579, -0.4472135954999579, 0.4472135954999579]}
    - {mu0: 1, rank: 2, ndensity: 1, num_ms_combs: 5, mus: [0, 2], ns: [1, 1], ls: [2, 2], ms_combs: [-2, 2, -1, 1, 0, 0, 1, -1, 2, -2], ctildes: [0.4472135954999579, -0.4472135954999579, 0.4472135954999579, -0.4472135954999579, 0.4472135954999579]}
    - {mu0: 1, rank: 2, ndensity: 1, num_ms_combs: 5, mus: [0, 3], ns: [1, 1], ls: [2, 2], ms_combs: [-2, 2, -1, 1, 0, 0, 1, -1, 2, -2], ctildes: [0.4472135954999579, -0.4472135954999579, 0.4472135954999579, -0.4472135954999579, 0.4472135954999579]}
    - {mu0: 1, rank: 2, ndensity: 1, num_ms_combs: 5, mus: [1, 1], ns: [1, 1], ls: [2, 2], ms_combs: [-2, 2, -1, 1, 0, 0, 1, -1, 2, -2], ctildes: [0.4472135954999579, -0.4472135954999579, 0.4472135954999579, -0.4472135954999579, 0.4472135954999579]}
    - {mu0: 1, rank: 2, ndensity: 1, num_ms_combs: 5, mus: [1, 2], ns: [1, 1], ls: [2, 2], ms_combs: [-2, 2, -1, 1, 0, 0, 1, -1, 2, -2], ctildes: [0.4472135954999579, -0.4472135954999579, 0.4472135954999579, -0.4472135954999579, 0.4472135954999579]}
    - {mu0: 1, rank: 2, ndensity: 1, num_ms_combs: 5, mus: [1, 3], ns: [1, 1], ls: [2, 2], ms_combs: [-2, 2, -1, 1, 0, 0, 1, -1, 2, -2], ctildes: [0.4472135954999579, -0.4472135954999579, 0.4472135954999579, -0.4472135954999579, 0.4472135954999579]}
    - {mu0: 1, rank: 2, ndensity: 1, num_ms_combs: 5, mus: [2, 2], ns: [1, 1], ls: [2, 2], ms_combs: [-2, 2, -1, 1, 0, 0, 1, -1, 2, -2], ctildes: [0.4472135954999579, -0.4472135954999579, 0.4472135954999579, -0.4472135954999579, 0.4472135954999579]}
    - {mu0: 1, rank: 2, ndensity: 1, num_ms_combs: 5, mus: [2, 3], ns: [1, 1], ls: [2, 2], ms_combs: [-2, 2, -1, 1, 0, 0, 1, -1, 2, -2], ctildes: [0.4472135954999579, -0.4472135954999579, 0.4472135954999579, -0.4472135954999579, 0.4472135954999579]}
    - {mu0: 1, rank: 2, ndensity: 1, num_ms_combs: 5, mus: [3, 3], ns: [1, 1], ls: [2, 2], ms_combs: [-2, 2, -1, 1, 0, 0, 1, -1, 2, -2], ctildes: [0.4472135954999579, -0.4472135954999579, 0.4472135954999579, -0.4472135954999579, 0.4472135954999579]}
    - {mu0: 1, rank: 2, ndensity: 1, num_ms_combs: 5, mus: [0, 0], ns: [1, 2], ls: [2, 2], ms_combs: [-2, 2, -1, 1, 0, 0, 1, -1, 2, -2], ctildes: [0.4472135954999579, -0.4472135954999579, 0.4472135954999579, -0.4472135954999579, 0.4472135954999579]}
    - {mu0: 1, rank: 2, ndensity: 1, num_ms_combs: 5, mus: [0, 1], ns: [1, 2], ls: [2, 2], ms_combs: [-2, 2, -1, 1, 0, 0, 1, -1, 2, -2], ctildes: [0.4472135954999579, -0.4472135954999579, 0.4472135954999579, -0.4472135954999579, 0.4472135954999579]}
    - {mu0: 1, rank: 2, ndensity: 1, num_ms_combs: 5, mus: [0, 2], ns: [1, 2], ls: [2, 2], ms_combs: [-2, 2, -1, 1, 0, 0, 1, -1, 2, -2], ctildes: [0.4472135954999579, -0.4472135954999579, 0.4472135954999579, -0.4472135954999579, 0.4472135954999579]}
    - {mu0: 1, rank: 2, ndensity: 1, num_ms_combs: 5, mus: [0, 3], ns: [1, 2], ls: [2, 2], ms_combs: [-2, 2, -1, 1, 0, 0, 1, -1, 2, -2], ctildes: [0.4472135954999579, -0.4472135954999579, 0.4472135954999579, -0.4472135954999579, 0.4472135954999579]}
    - {mu0: 1, rank: 2, ndensity: 1, num_ms_combs: 5, mus: [1, 1], ns: [1, 2], ls: [2, 2], ms_combs: [-2, 2, -1, 1, 0, 0, 1, -1, 2, -2], ctildes: [0.4472135954999579, -0.4472135954999579, 0.4472135954999579, -0.4472135954999579, 0.4472135954999579]}
    - {mu0: 1, rank: 2, ndensity: 1, num_ms_combs: 5, mus: [1, 2], ns: [1, 2], ls: [2, 2], ms_combs: [-2, 2, -1, 1, 0, 0, 1, -1, 2, -2], ctildes: [0.4472135954999579, -0.4472135954999579, 0.4472135954999579, -0.4472135954999579, 0.4472135954999579]}
    - {mu0: 1, rank: 2, ndensity: 1, num_ms_combs: 5, mus: [1, 3], ns: [1, 2], ls: [2, 2], ms_combs: [-2, 2, -1, 1, 0, 0, 1, -1, 2, -2], ctildes: [0.4472135954999579, -0.4472135954999579, 0.4472135954999579, -0.4472135954999579, 0.4472135954999579]}
    - {mu0: 1, rank: 2, ndensity: 1, num_ms_combs: 5, mus: [2, 2], ns: [1, 2], ls: [2, 2], ms_combs: [-2, 2, -1, 1, 0, 0, 1, -1, 2, -2], ctildes: [0.4472135954999579, -0.4472135954999579, 0.4472135954999579, -0.4472135954999579, 0.4472135954999579]}
    - {mu0: 1, rank: 2, ndensity: 1, num_ms_combs: 5, mus: [2, 3], ns: [1, 2], ls: [2, 2], ms_combs: [-2, 2, -1, 1, 0, 0, 1, -1, 2, -2], ctildes: [0.4472135954999579, -0.4472135954999579, 0.4472135954999579, -0.4472135954999579, 0.4472135954999579]}
    - {mu0: 1, rank: 2, ndensity: 1, num_ms_combs: 5, mus: [3, 3], ns: [1, 2], ls: [2, 2], ms_combs: [-2, 2, -1, 1, 0, 0, 1, -1, 2, -2], ctildes: [0.4472135954999579, -0.4472135954999579, 0.4472135954999579, -0.4472135954999579, 0.4472135954999579]}
    - {mu0: 1, rank: 2, ndensity: 1, num_ms_combs: 5, mus: [0, 1], ns: [2, 1], ls: [2, 2], ms_combs: [-2, 2, -1, 1, 0, 0, 1, -1, 2, -2], ctildes: [0.4472135954999579, -0.4472135954999579, 0.4472135954999579, -0.4472135954999579, 0.4472135954999579]}
    - {mu0: 1, rank: 2, ndensity: 1, num_ms_combs: 5, mus: [0, 2], ns: [2, 1], ls: [2, 2], ms_combs: [-2, 2, -1, 1, 0, 0, 1, -1, 2, -2], ctildes: [0.4472135954999579, -0.4472135954999579, 0.4472135954999579, -0.4472135954999579, 0.4472135954999579]}
    - {mu0: 1, rank: 2, ndensity: 1, num_ms_combs: 5, mus: [0, 3], ns: [2, 1], ls: [2, 2], ms_combs: [-2, 2, -1, 1, 0, 0, 1, -1, 2, -2], ctildes: [0.4472135954999579, -0.4472135954999579, 0.4472135954999579, -0.4472135954999579, 0.4472135954999579]}
    - {mu0: 1, rank: 2, ndensity: 1, num_ms_combs: 5, mus: [1, 2], ns: [2, 1], ls: [2, 2], ms_combs: [-2, 2, -1, 1, 0, 0, 1, -1, 2, -2], ctildes: [0.4472135954999579, -0.4472135954999579, 0.4472135954999579, -0.4472135954999579, 0.4472135954999579]}
    - {mu0: 1, rank: 2, ndensity: 1, num_ms_combs: 5, mus: [1, 3], ns: [2, 1], ls: [2, 2], ms_combs: [-2, 2, -1, 1, 0, 0, 1, -1, 2, -2], ctildes: [0.4472135954999579, -0.4472135954999579, 0.4472135954999579, -0.4472135954999579, 0.4472135954999579]}
    - {mu0: 1, rank: 2, ndensity: 1, num_ms_combs: 5, mus: [2, 3], ns: [2, 1], ls: [2, 2], ms_combs: [-2, 2, -1, 1, 0, 0, 1, -1, 2, -2], ctildes: [0.4472135954999579, -0.4472135954999579, 0.4472135954999579, -0.4472135954999579, 0.4472135954999579]}
    - {mu0: 1, rank: 2, ndensity: 1, num_ms_combs: 5, mus: [0, 0], ns: [2, 2], ls: [2, 2], ms_combs: [-2, 2, -1, 1, 0, 0, 1, -1, 2, -2], ctildes: [0.4472135954999579, -0.4472135954999579, 0.4472135954999579, -0.4472135954999579, 0.4472135954999579]}
    - {mu0: 1, rank: 2, ndensity: 1, num_ms_combs: 5, mus: [0, 1], ns: [2, 2], ls: [2, 2], ms_combs: [-2, 2, -1, 1, 0, 0, 1, -1, 2, -2], ctildes: [0.4472135954999579, -0.4472135954999579, 0.4472135954999579, -0.4472135954999579, 0.4472135954999579]}
    - {mu0: 1, rank: 2, ndensity: 1, num_ms_combs: 5, mus: [0, 2], ns: [2, 2], ls: [2, 2], ms_combs: [-2, 2, -1, 1, 0, 0, 1, -1, 2, -2], ctildes: [0.4472135954999579, -0.4472135954999579, 0.4472135954999579, -0.4472135954999579, 0.4472135954999579]}
    - {mu0: 1, rank: 2, ndensity: 1, num_ms_combs: 5, mus: [0, 3], ns: [2, 2], ls: [2, 2], ms_combs: [-2, 2, -1, 1, 0, 0, 1, -1, 2, -2], ctildes: [0.4472135954999579, -0.4472135954999579, 0.4472135954999579, -0.4472135954999579, 0.4472135954999579]}
    - {mu0: 1, rank: 2, ndensity: 1, num_ms_combs: 5, mus: [1, 1], ns: [2, 2], ls: [2, 2], ms_combs: [-2, 2, -1, 1, 0, 0, 1, -1, 2, -2], ctildes: [0.4472135954999579, -0.4472135954999579, 0.4472135954999579, -0.4472135954999579, 0.4472135954999579]}
    - {mu0: 1, rank: 2, ndensity: 1, num_ms_combs: 5, mus: [1, 2], ns: [2, 2], ls: [2, 2], ms_combs: [-2, 2, -1, 1, 0, 0, 1, -1, 2, -2], ctildes: [0.4472135954999579, -0.4472135954999579, 0.4472135954999579, -0.4472135954999579, 0.4472135954999579]}
    - {mu0: 1, rank: 2, ndensity: 1, num_ms_combs: 5, mus: [1, 3], ns: [2, 2], ls: [2, 2], ms_combs: [-2, 2, -1, 1, 0, 0, 1, -1, 2, -2], ctildes: [0.4472135954999579, -0.4472135954999579, 0.4472135954999579, -0.4472135954999579, 0.4472135954999579]}
    - {mu0: 1, rank: 2, ndensity: 1, num_ms_combs: 5, mus: [2, 2], ns: [2, 2], ls: [2, 2], ms_combs: [-2, 2, -1, 1, 0, 0, 1, -1, 2, -2], ctildes: [0.4472135954999579, -0.4472135954999579, 0.4472135954999579, -0.4472135954999579, 0.4472135954999579]}
    - {mu0: 1, rank: 2, ndensity: 1, num_ms_combs: 5, mus: [2, 3], ns: [2, 2], ls: [2, 2], ms_combs: [-2, 2, -1, 1, 0, 0, 1, -1, 2, -2], ctildes: [0.4472135954999579, -0.4472135954999579, 0.4472135954999579, -0.4472135954999579, 0.4472135954999579]}
    - {mu0: 1, rank: 2, ndensity: 1, num_ms_combs: 5, mus: [3, 3], ns: [2, 2], ls: [2, 2], ms_combs: [-2, 2, -1, 1, 0, 0, 1, -1, 2, -2], ctildes: [0.4472135954999579, -0.4472135954999579, 0.4472135954999579, -0.4472135954999579, 0.4472135954999579]}
    - {mu0: 1, rank: 3, ndensity: 1, num_ms_combs: 9, mus: [0, 0, 0], ns: [1, 1, 1], ls: [1, 1, 2], ms_combs: [-1, -1, 2, -1, 0, 1, -1, 1, 0, 0, -1, 1, 0, 0, 0, 0, 1, -1, 1, -1, 0, 1, 0, -1, 1, 1, -2], ctildes: [0.4472135954999579, -0.31622776601683794, 0.18257418583505536, -0.31622776601683794, 0.3651483716701107, -0.31622776601683794, 0.18257418583505536, -0.31622776601683794, 0.4472135954999579]}
    - {mu0: 1, rank: 3, ndensity: 1, num_ms_combs: 9, mus: [0, 0, 1], ns: [1, 1, 1], ls: [1, 1, 2], ms_combs: [-1, -1, 2, -1, 0, 1, -1, 1, 0, 0, -1, 1, 0, 0, 0, 0, 1, -1, 1, -1, 0, 1, 0, -1, 1, 1, -2], ctildes: [0.4472135954999579, -0.31622776601683794, 0.18257418583505536, -0.31622776601683794, 0.3651483716701107, -0.31622776601683794, 0.18257418583505536, -0.31622776601683794, 0.4472135954999579]}
    - {mu0: 1, rank: 3, ndensity: 1, num_ms_combs: 9, mus: [0, 0, 2], ns: [1, 1, 1], ls: [1, 1, 2], ms_combs: [-1, -1, 2, -1, 0, 1, -1, 1, 0, 0, -1, 1, 0, 0, 0, 0, 1, -1, 1, -1, 0, 1, 0, -1, 1, 1, -2], ctildes: [0.4472135954999579, -0.31622776601683794, 0.18257418583505536, -0.31622776601683794, 0.3651483716701107, -0.31622776601683794, 0.18257418583505536, -0.31622776601683794, 0.4472135954999579]}
    - {mu0: 1, rank: 3, ndensity: 1, num_ms_combs: 9, mus: [0, 0, 3], ns: [1, 1, 1], ls: [1, 1, 2], ms_combs: [-1, -1, 2, -1, 0, 1, -1, 1, 0, 0, -1, 1, 0, 0, 0, 0, 1, -1, 1, -1, 0, 1, 0, -1, 1, 1, -2], ctildes: [0.4472135954999579, -0.31622776601683794, 0.18257418583505536, -0.31622776601683794, 0.3651483716701107, -0.31622776601683794, 0.18257418583505536, -0.31622776601683794, 0.4472135954999579]}
    - {mu0: 1, rank: 3, ndensity: 1, num_ms_combs: 9, mus: [0, 1, 1], ns: [1, 1, 1], ls: [1, 1, 2], ms_combs: [-1, -1, 2, -1, 0, 1, -1, 1, 0, 0, -1, 1, 0, 0, 0, 0, 1, -1, 1, -1, 0, 1, 0, -1, 1, 1, -2], ctildes: [0.4472135954999579, -0.31622776601683794, 0.18257418583505536, -0.31622776601683794, 0.3651483716701107, -0.31622776601683794, 0.18257418583505536, -0.31622776601683794, 0.4472135954999579]}
    - {mu0: 1, rank: 3, ndensity: 1, num_ms_combs: 9, mus: [0, 1, 2], ns: [1, 1, 1], ls: [1, 1, 2], ms_combs: [-1, -1, 2, -1, 0, 1, -1, 1, 0, 0, -1, 1, 0, 0, 0, 0, 1, -1, 1, -1, 0, 1, 0, -1, 1, 1, -2], ctildes: [0.4472135954999579, -0.31622776601683794, 0.18257418583505536, -0.31622776601683794, 0.3651483716701107, -0.31622776601683794, 0.18257418583505536, -0.31622776601683794, 0.4472135954999579]}
    - {mu0: 1, rank: 3, ndensity: 1, num_ms_combs: 9, mus: [0, 1, 3], ns: [1, 1, 1], ls: [1, 1, 2], ms_combs: [-1, -1, 2, -1, 0, 1, -1, 1, 0, 0, -1, 1, 0, 0, 0, 0, 1, -1, 1, -1, 0, 1, 0, -1, 1, 1, -2], ctildes: [0.4472135954999579, -0.31622776601683794, 0.18257418583505536, -0.31622776601683794, 0.3651483716701107, -0.31622776601683794, 0.18257418583505536, -0.31622776601683794, 0.4472135954999579]}
    - {mu0: 1, rank: 3, ndensity: 1, num_ms_combs: 9, mus: [0, 2, 2], ns: [1, 1, 1], ls: [1, 1, 2], ms_combs: [-1, -1, 2, -1, 0, 1, -1, 1, 0, 0, -1, 1, 0, 0, 0, 0, 1, -1, 1, -1, 0, 1, 0, -1, 1, 1, -2], ctildes: [0.4472135954999579, -0.31622776601683794, 0.18257418583505536, -0.31622776601683794, 0.3651483716701107, -0.31622776601683794, 0.18257418583505536, -0.31622776601683794, 0.4472135954999579]}
    - {mu0: 1, rank: 3, ndensity: 1, num_ms_combs: 9, mus: [0, 2, 3], ns: [1, 1, 1], ls: [1, 1, 2], ms_combs: [-1, -1, 2, -1, 0, 1, -1, 1, 0, 0, -1, 1, 0, 0, 0, 0, 1, -1, 1, -1, 0, 1, 0, -1, 1, 1, -2], ctildes: [0.4472135954999579, -0.31622776601683794, 0.18257418583505536, -0.31622776601683794, 0.3651483716701107, -0.31622776601683794, 0.18257418583505536, -0.31622776601683794, 0.4472135954999579]}
    - {mu0: 1, rank: 3, ndensity: 1, num_ms_combs: 9, mus: [0, 3, 3], ns: [1, 1, 1], ls: [1, 1, 2], ms_combs: [-1, -1, 2, -1, 0, 1, -1, 1, 0, 0, -1, 1, 0, 0, 0, 0, 1, -1, 1, -1, 0, 1, 0, -1, 1, 1, -2], ctildes: [0.4472135954999579, -0.31622776601683794, 0.18257418583505536, -0.31622776601683794, 0.3651483716701107, -0.31622776601683794, 0.18257418583505536, -0.31622776601683794, 0.4472135954999579]}
    - {mu0: 1, rank: 3, ndensity: 1, num_ms_combs: 9, mus: [1, 1, 1], ns: [1, 1, 1], ls: [1, 1, 2], ms_combs: [-1, -1, 2, -1, 0, 1, -1, 1, 0, 0, -1, 1, 0, 0, 0, 0, 1, -1, 1, -1, 0, 1, 0, -1, 1, 1, -2], ctildes: [0.4472135954999579, -0.31622776601683794, 0.18257418583505536, -0.31622776601683794, 0.3651483716701107, -0.31622776601683794, 0.18257418583505536, -0.31622776601683794, 0.4472135954999579]}
    - {mu0: 1, rank: 3, ndensity: 1, num_ms_combs: 9, mus: [1, 1, 2], ns: [1, 1, 1], ls: [1, 1, 2], ms_combs: [-1, -1, 2, -1, 0, 1, -1, 1, 0, 0, -1, 1, 0, 0, 0, 0, 1, -1, 1, -1, 0, 1, 0, -1, 1, 1, -2], ctildes: [0.4472135954999579, -0.31622776601683794, 0.18257418583505536, -0.31622776601683794, 0.3651483716701107, -0.31622776601683794, 0.18257418583505536, -0.31622776601683794, 0.4472135954999579]}
    - {mu0: 1, rank: 3, ndensity: 1, num_ms_combs: 9, mus: [1, 1, 3], ns: [1, 1, 1], ls: [1, 1, 2], ms_combs: [-1, -1, 2, -1, 0, 1, -1, 1, 0, 0, -1, 1, 0, 0, 0, 0, 1, -1, 1, -1, 0, 1, 0, -1, 1, 1, -2], ctildes: [0.4472135954999579, -0.31622776601683794, 0.18257418583505536, -0.31622776601683794, 0.3651483716701107, -0.31622776601683794, 0.18257418583505536, -0.31622776601683794, 0.4472135954999579]}
    - {mu0: 1, rank: 3, ndensity: 1, num_ms_combs: 9, mus: [1, 2, 2], ns: [1, 1, 1], ls: [1, 1, 2], ms_combs: [-1, -1, 2, -1, 0, 1, -1, 1, 0, 0, -1, 1, 0, 0, 0, 0, 1, -1, 1, -1, 0, 1, 0, -1, 1, 1, -2], ctildes: [0.4472135954999579, -0.31622776601683794, 0.18257418583505536, -0.31622776601683794, 0.3651483716701107, -0.31622776601683794, 0.18257418583505536, -0.31622776601683794, 0.4472135954999579]}
    - {mu0: 1, rank: 3, ndensity: 1, num_ms_combs: 9, mus: [1, 2, 3], ns: [1, 1, 1], ls: [1, 1, 2], ms_combs: [-1, -1, 2, -1, 0, 1, -1, 1, 0, 0, -1, 1, 0, 0, 0, 0, 1, -1, 1, -1, 0, 1, 0, -1, 1, 1, -2], ctildes: [0.4472135954999579, -0.31622776601683794, 0.18257418583505536, -0.31622776601683794, 0.3651483716701107, -0.31622776601683794, 0.18257418583505536, -0.31622776601683794, 0.4472135954999579]}
    - {mu0: 1, rank: 3, ndensity: 1, num_ms_combs: 9, mus: [1, 3, 3], ns: [1, 1, 1], ls: [1, 1, 2], ms_combs: [-1, -1, 2, -1, 0, 1, -1, 1, 0, 0, -1, 1, 0, 0, 0, 0, 1, -1, 1, -1, 0, 1, 0, -1, 1, 1, -2], ctildes: [0.4472135954999579, -0.31622776601683794, 0.18257418583505536, -0.31622776601683794, 0.3651483716701107, -0.31622776601683794, 0.18257418583505536, -0.31622776601683794, 0.4472135954999579]}
    - {mu0: 1, rank: 3, ndensity: 1, num_ms_combs: 9, mus: [2, 2, 2], ns: [1, 1, 1], ls: [1, 1, 2], ms_combs: [-1, -1, 2, -1, 0, 1, -1, 1, 0, 0, -1, 1, 0, 0, 0, 0, 1, -1, 1, -1, 0, 1, 0, -1, 1, 1, -2], ctildes: [0.4472135954999579, -0.31622776601683794, 0.18257418583505536, -0.31622776601683794, 0.3651483716701107, -0.31622776601683794, 0.18257418583505536, -0.31622776601683794, 0.4472135954999579]}
    - {mu0: 1, rank: 3, ndensity: 1, num_ms_combs: 9, mus: [2, 2, 3], ns: [1, 1, 1], ls: [1, 1, 2], ms_combs: [-1, -1, 2, -1, 0, 1, -1, 1, 0, 0, -1, 1, 0, 0, 0, 0, 1, -1, 1, -1, 0, 1, 0, -1, 1, 1, -2], ctildes: [0.4472135954999579, -0.31622776601683794, 0.18257418583505536, -0.31622776601683794, 0.3651483716701107, -0.31622776601683794, 0.18257418583505536, -0.31622776601683794, 0.4472135954999579]}
    - {mu0: 1, rank: 3, ndensity: 1, num_ms_combs: 9, mus: [2, 3, 3], ns: [1, 1, 1], ls: [1, 1, 2], ms_combs: [-1, -1, 2, -1, 0, 1, -1, 1, 0, 0, -1, 1, 0, 0, 0, 0, 1, -1, 1, -1, 0, 1, 0, -1, 1, 1, -2], ctildes: [0.4472135954999579, -0.31622776601683794, 0.18257418583505536, -0.31622776601683794, 0.3651483716701107, -0.31622776601683794, 0.18257418583505536, -0.31622776601683794, 0.4472135954999579]}
    - {mu0: 1, rank: 3, ndensity: 1, num_ms_combs: 9, mus: [3, 3, 3], ns: [1, 1, 1], ls: [1, 1, 2], ms_combs: [-1, -1, 2, -1, 0, 1, -1, 1, 0, 0, -1, 1, 0, 0, 0, 0, 1, -1, 1, -1, 0, 1, 0, -1, 1, 1, -2], ctildes: [0.4472135954999579, -0.31622776601683794, 0.18257418583505536, -0.31622776601683794, 0.3651483716701107, -0.31622776601683794, 0.18257418583505536, -0.31622776601683794, 0.4472135954999579]}
    - {mu0: 1, rank: 3, ndensity: 1, num_ms_combs: 9, mus: [0, 0, 1], ns: [1, 1, 1], ls: [1, 2, 1], ms_combs: [-1, 0, 1, -1, 1, 0, -1, 2, -1, 0, -1, 1, 0, 0, 0, 0, 1, -1, 1, -2, 1, 1, -1, 0, 1, 0, -1], ctildes: [0.18257418583505536, -0.3162277660168379, 0.4472135954999579, -0.3162277660168379, 0.3651483716701107, -0.3162277660168379, 0.4472135954999579, -0.3162277660168379, 0.18257418583505536]}
    - {mu0: 1, rank: 3, ndensity: 1, num_ms_combs: 9, mus: [0, 0, 2], ns: [1, 1, 1], ls: [1, 2, 1], ms_combs: [-1, 0, 1, -1, 1, 0, -1, 2, -1, 0, -1, 1, 0, 0, 0, 0, 1, -1, 1, -2, 1, 1, -1, 0, 1, 0, -1], ctildes: [0.18257418583505536, -0.3162277660168379, 0.4472135954999579, -0.3162277660168379, 0.3651483716701107, -0.3162277660168379, 0.4472135954999579, -0.3162277660168379, 0.18257418583505536]}
    - {mu0: 1, rank: 3, ndensity: 1, num_ms_combs: 9, mus: [0, 0, 3], ns: [1, 1, 1], ls: [1, 2, 1], ms_combs: [-1, 0, 1, -1, 1, 0, -1, 2, -1, 0, -1, 1, 0, 0, 0, 0, 1, -1, 1, -2, 1, 1, -1, 0, 1, 0, -1], ctildes: [0.18257418583505536, -0.3162277660168379, 0.4472135954999579, -0.3162277660168379, 0.3651483716701107, -0.3162277660168379, 0.4472135954999579, -0.3162277660168379, 0.18257418583505536]}
    - {mu0: 1, rank: 3, ndensity: 1, num_ms_combs: 9, mus: [0, 1, 2], ns: [1, 1, 1], ls: [1, 2, 1], ms_combs: [-1, 0, 1, -1, 1, 0, -1, 2, -1, 0, -1, 1, 0, 0, 0, 0, 1, -1, 1, -2, 1, 1, -1, 0, 1, 0, -1], ctildes: [0.18257418583505536, -0.3162277660168379, 0.4472135954999579, -0.3162277660168379, 0.3651483716701107, -0.3162277660168379, 0.4472135954999579, -0.3162277660168379, 0.18257418583505536]}
    - {mu0: 1, rank: 3, ndensity: 1, num_ms_combs: 9, mus: [0, 1, 3], ns: [1, 1, 1], ls: [1, 2, 1], ms_combs: [-1, 0, 1, -1, 1, 0, -1, 2, -1, 0, -1, 1, 0, 0, 0, 0, 1, -1, 1, -2, 1, 1, -1, 0, 1, 0, -1], ctildes: [0.18257418583505536, -0.3162277660168379, 0.4472135954999579, -0.3162277660168379, 0.3651483716701107, -0.3162277660168379, 0.4472135954999579, -0.3162277660168379, 0.18257418583505536]}
    - {mu0: 1, rank: 3, ndensity: 1, num_ms_combs: 9, mus: [0, 2, 3], ns: [1, 1, 1], ls: [1, 2, 1], ms_combs: [-1, 0, 1, -1, 1, 0, -1, 2, -1, 0, -1, 1, 0, 0, 0, 0, 1, -1, 1, -2, 1, 1, -1, 0, 1, 0, -1], ctildes: [0.18257418583505536, -0.3162277660168379, 0.4472135954999579, -0.3162277660168379, 0.3651483716701107, -0.3162277660168379, 0.4472135954999579, -0.3162277660168379, 0.18257418583505536]}
    - {mu0: 1, rank: 3, ndensity: 1, num_ms_combs: 9, mus: [1, 1, 2], ns: [1, 1, 1], ls: [1, 2, 1], ms_combs: [-1, 0, 1, -1, 1, 0, -1, 2, -1, 0, -1, 1, 0, 0, 0, 0, 1, -1, 1, -2, 1, 1, -1, 0, 1, 0, -1], ctildes: [0.18257418583505536, -0.3162277660168379, 0.4472135954999579, -0.3162277660168379, 0.3651483716701107, -0.3162277660168379, 0.4472135954999579, -0.3162277660168379, 0.18257418583505536]}
    - {mu0: 1, rank: 3, ndensity: 1, num_ms_combs: 9, mus: [1, 1, 3], ns: [1, 1, 1], ls: [1, 2, 1], ms_combs: [-1, 0, 1, -1, 1, 0, -1, 2, -1, 0, -1, 1, 0, 0, 0, 0, 1, -1, 1, -2, 1, 1, -1, 0, 1, 0, -1], ctildes: [0.18257418583505536, -0.3162277660168379, 0.4472135954999579, -0.3162277660168379, 0.3651483716701107, -0.3162277660168379, 0.4472135954999579, -0.3162277660168379, 0.18257418583505536]}
    - {mu0: 1, rank: 3, ndensity: 1, num_ms_combs: 9, mus: [1, 2, 3], ns: [1, 1, 1], ls: [1, 2, 1], ms_combs: [-1, 0, 1, -1, 1, 0, -1, 2, -1, 0, -1, 1, 0, 0, 0, 0, 1, -1, 1, -2, 1, 1, -1, 0, 1, 0, -1], ctildes: [0.18257418583505536, -0.3162277660168379, 0.4472135954999579, -0.3162277660168379, 0.3651483716701107, -0.3162277660168379, 0.4472135954999579, -0.3162277660168379, 0.18257418583505536]}
    - {mu0: 1, rank: 3, ndensity: 1, num_ms_combs: 9, mus: [2, 2, 3], ns: [1, 1, 1], ls: [1, 2, 1], ms_combs: [-1, 0, 1, -1, 1, 0, -1, 2, -1, 0, -1, 1, 0, 0, 0, 0, 1, -1, 1, -2, 1, 1, -1, 0, 1, 0, -1], ctildes: [0.18257418583505536, -0.3162277660168379, 0.4472135954999579, -0.3162277660168379, 0.3651483716701107, -0.3162277660168379, 0.4472135954999579, -0.3162277660168379, 0.18257418583505536]}
    - {mu0: 1, rank: 3, ndensity: 1, num_ms_combs: 9, mus: [0, 1, 1], ns: [1, 1, 1], ls: [2, 1, 1], ms_combs: [-2, 1, 1, -1, 0, 1, -1, 1, 0, 0, -1, 1, 0, 0, 0, 0, 1, -1, 1, -1, 0, 1, 0, -1, 2, -1, -1], ctildes: [0.4472135954999579, -0.3162277660168379, -0.3162277660168379, 0.18257418583505536, 0.3651483716701107, 0.18257418583505536, -0.3162277660168379, -0.3162277660168379, 0.4472135954999579]}
    - {mu0: 1, rank: 3, ndensity: 1, num_ms_combs: 9, mus: [0, 1, 2], ns: [1, 1, 1], ls: [2, 1, 1], ms_combs: [-2, 1, 1, -1, 0, 1, -1, 1, 0, 0, -1, 1, 0, 0, 0, 0, 1, -1, 1, -1, 0, 1, 0, -1, 2, -1, -1], ctildes: [0.4472135954999579, -0.3162277660168379, -0.3162277660168379, 0.18257418583505536, 0.3651483716701107, 0.18257418583505536, -0.3162277660168379, -0.3162277660168379, 0.4472135954999579]}
    - {mu0: 1, rank: 3, ndensity: 1, num_ms_combs: 9, mus: [0, 1, 3], ns: [1, 1, 1], ls: [2, 1, 1], ms_combs: [-2, 1, 1, -1, 0, 1, -1, 1, 0, 0, -1, 1, 0, 0, 0, 0, 1, -1, 1, -1, 0, 1, 0, -1, 2, -1, -1], ctildes: [0.4472135954999579, -0.3162277660168379, -0.3162277660168379, 0.18257418583505536, 0.3651483716701107, 0.18257418583505536, -0.3162277660168379, -0.3162277660168379, 0.4472135954999579]}
    - {mu0: 1, rank: 3, ndensity: 1, num_ms_combs: 9, mus: [0, 2, 2], ns: [1, 1, 1], ls: [2, 1, 1], ms_combs: [-2, 1, 1, -1, 0, 1, -1, 1, 0, 0, -1, 1, 0, 0, 0, 0, 1, -1, 1, -1, 0, 1, 0, -1, 2, -1, -1], ctildes: [0.4472135954999579, -0.3162277660168379, -0.3162277660168379, 0.18257418583505536, 0.3651483716701107, 0.18257418583505536, -0.3162277660168379, -0.3162277660168379, 0.4472135954999579]}
    - {mu0: 1, rank: 3, ndensity: 1, num_ms_combs: 9, mus: [0, 2, 3], ns: [1, 1, 1], ls: [2, 1, 1], ms_combs: [-2, 1, 1, -1, 0, 1, -1, 1, 0, 0, -1, 1, 0, 0, 0, 0, 1, -1, 1, -1, 0, 1, 0, -1, 2, -1, -1], ctildes: [0.4472135954999579, -0.3162277660168379, -0.3162277660168379, 0.18257418583505536, 0.3651483716701107, 0.18257418583505536, -0.3162277660168379, -0.3162277660168379, 0.4472135954999579]}
    - {mu0: 1, rank: 3, ndensity: 1, num_ms_combs: 9, mus: [0, 3, 3], ns: [1, 1, 1], ls: [2, 1, 1], ms_combs: [-2, 1, 1, -1, 0, 1, -1, 1, 0, 0, -1, 1, 0, 0, 0, 0, 1, -1, 1, -1, 0, 1, 0, -1, 2, -1, -1], ctildes: [0.4472135954999579, -0.3162277660168379, -0.3162277660168379, 0.18257418583505536, 0.3651483716701107, 0.18257418583505536, -0.3162277660168379, -0.3162277660168379, 0.4472135954999579]}
    - {mu0: 1, rank: 3, ndensity: 1, num_ms_combs: 9, mus: [1, 2, 2], ns: [1, 1, 1], ls: [2, 1, 1], ms_combs: [-2, 1, 1, -1, 0, 1, -1, 1, 0, 0, -1, 1, 0, 0, 0, 0, 1, -1, 1, -1, 0, 1, 0, -1, 2, -1, -1], ctildes: [0.4472135954999579, -0.3162277660168379, -0.3162277660168379, 0.18257418583505536, 0.3651483716701107, 0.18257418583505536, -0.3162277660168379, -0.3162277660168379, 0.4472135954999579]}
    - {mu0: 1, rank: 3, ndensity: 1, num_ms_combs: 9, mus: [1, 2, 3], ns: [1, 1, 1], ls: [2, 1, 1], ms_combs: [-2, 1, 1, -1, 0, 1, -1, 1, 0, 0, -1, 1, 0, 0, 0, 0, 1, -1, 1, -1, 0, 1, 0, -1, 2, -1, -1], ctildes: [0.4472135954999579, -0.3162277660168379, -0.3162277660168379, 0.18257418583505536, 0.3651483716701107, 0.18257418583505536, -0.3162277660168379, -0.3162277660168379, 0.4472135954999579]}
    - {mu0: 1, rank: 3, ndensity: 1, num_ms_combs: 9, mus: [1, 3, 3], ns: [1, 1, 1], ls: [2, 1, 1], ms_combs: [-2, 1, 1, -1, 0, 1, -1, 1, 0, 0, -1, 1, 0, 0, 0, 0, 1, -1, 1, -1, 0, 1, 0, -1, 2, -1, -1], ctildes: [0.4472135954999579, -0.3162277660168379, -0.3162277660168379, 0.18257418583505536, 0.3651483716701107, 0.18257418583505536, -0.3162277660168379, -0.3162277660168379, 0.4472135954999579]}
    - {mu0: 1, rank: 3, ndensity: 1, num_ms_combs: 9, mus: [2, 3, 3], ns: [1, 1, 1], ls: [2, 1, 1], ms_combs: [-2, 1, 1, -1, 0, 1, -1, 1, 0, 0, -1, 1, 0, 0, 0, 0, 1, -1, 1, -1, 0, 1, 0, -1, 2, -1, -1], ctildes: [0.4472135954999579, -0.3162277660168379, -0.3162277660168379, 0.18257418583505536, 0.3651483716701107, 0.18257418583505536, -0.3162277660168379, -0.3162277660168379, 0.4472135954999579]}
    - {mu0: 1, rank: 3, ndensity: 1, num_ms_combs: 19, mus: [0, 0, 0], ns: [1, 1, 1], ls: [2, 2, 2], ms_combs: [-2, 0, 2, -2, 1, 1, -2, 2, 0, -1, -1, 2, -1, 0, 1, -1, 1, 0, -1, 2, -1, 0, -2, 2, 0, -1, 1, 0, 0, 0, 0, 1, -1, 0, 2, -2, 1, -2, 1, 1, -1, 0, 1, 0, -1, 1, 1, -2, 2, -2, 0, 2, -1, -1, 2, 0, -2], ctildes: [0.23904572186687872, -0.29277002188455997, 0.23904572186687872, -0.29277002188455997, 0.11952286093343936, 0.11952286093343936, -0.29277002188455997, 0.23904572186687872, 0.11952286093343936, -0.23904572186687872, 0.11952286093343936, 0.23904572186687872, -0.29277002188455997, 0.11952286093343936, 0.11952286093343936, -0.29277002188455997, 0.23904572186687872, -0.29277002188455997, 0.23904572186687872]}
    - {mu0: 1, rank: 3, ndensity: 1, num_ms_combs: 19, mus: [0, 0, 1], ns: [1, 1, 1], ls: [2, 2, 2], ms_combs: [-2, 0, 2, -2, 1, 1, -2, 2, 0, -1, -1, 2, -1, 0, 1, -1, 1, 0, -1, 2, -1, 0, -2, 2, 0, -1, 1, 0, 0, 0, 0, 1, -1, 0, 2, -2, 1, -2, 1, 1, -1, 0, 1, 0, -1, 1, 1, -2, 2, -2, 0, 2, -1, -1, 2, 0, -2], ctildes: [0.23904572186687872, -0.29277002188455997, 0.23904572186687872, -0.29277002188455997, 0.11952286093343936, 0.11952286093343936, -0.29277002188455997, 0.23904572186687872, 0.11952286093343936, -0.23904572186687872, 0.11952286093343936, 0.23904572186687872, -0.29277002188455997, 0.11952286093343936, 0.11952286093343936, -0.29277002188455997, 0.23904572186687872, -0.29277002188455997, 0.23904572186687872]}
    - {mu0: 1, rank: 3, ndensity: 1, num_ms_combs: 19, mus: [0, 0, 2], ns: [1, 1, 1], ls: [2, 2, 2], ms_combs: [-2, 0, 2, -2, 1, 1, -2, 2, 0, -1, -1, 2, -1, 0, 1, -1, 1, 0, -1, 2, -1, 0, -2, 2, 0, -1, 1, 0, 0, 0, 0, 1, -1, 0, 2, -2, 1, -2, 1, 1, -1, 0, 1, 0, -1, 1, 1, -2, 2, -2, 0, 2, -1, -1, 2, 0, -2], ctildes: [0.23904572186687872, -0.29277002188455997, 0.23904572186687872, -0.29277002188455997, 0.11952286093343936, 0.11952286093343936, -0.29277002188455997, 0.23904572186687872, 0.11952286093343936, -0.23904572186687872, 0.11952286093343936, 0.23904572186687872, -0.29277002188455997, 0.11952286093343936, 0.11952286093343936, -0.29277002188455997, 0.23904572186687872, -0.29277002188455997, 0.23904572186687872]}
    - {mu0: 1, rank: 3, ndensity: 1, num_ms_combs: 19, mus: [0, 0, 3], ns: [1, 1, 1], ls: [2, 2, 2], ms_combs: [-2, 0, 2, -2, 1, 1, -2, 2, 0, -1, -1, 2, -1, 0, 1, -1, 1, 0, -1, 2, -1, 0, -2, 2, 0, -1, 1, 0, 0, 0, 0, 1, -1, 0, 2, -2, 1, -2, 1, 1, -1, 0, 1, 0, -1, 1, 1, -2, 2, -2, 0, 2, -1, -1, 2, 0, -2], ctildes: [0.23904572186687872, -0.29277002188455997, 0.23904572186687872, -0.29277002188455997, 0.11952286093343936, 0.11952286093343936, -0.29277002188455997, 0.23904572186687872, 0.11952286093343936, -0.23904572186687872, 0.11952286093343936, 0.23904572186687872, -0.29277002188455997, 0.11952286093343936, 0.11952286093343936, -0.29277002188455997, 0.23904572186687872, -0.29277002188455997, 0.23904572186687872]}
    - {mu0: 1, rank: 3, ndensity: 1, num_ms_combs: 19, mus: [0, 1, 1], ns: [1, 1, 1], ls: [2, 2, 2], ms_combs: [-2, 0, 2, -2, 1, 1, -2, 2, 0, -1, -1, 2, -1, 0, 1, -1, 1, 0, -1, 2, -1, 0, -2, 2, 0, -1, 1, 0, 0, 0, 0, 1, -1, 0, 2, -2, 1, -2, 1, 1, -1, 0, 1, 0, -1, 1, 1, -2, 2, -2, 0, 2, -1, -1, 2, 0, -2], ctildes: [0.23904572186687872, -0.29277002188455997, 0.23904572186687872, -0.29277002188455997, 0.11952286093343936, 0.11952286093343936, -0.29277002188455997, 0.23904572186687872, 0.11952286093343936, -0.23904572186687872, 0.11952286093343936, 0.23904572186687872, -0.29277002188455997, 0.11952286093343936, 0.11952286093343936, -0.29277002188455997, 0.23904572186687872, -0.29277002188455997, 0.23904572186687872]}
